{"learner":{"attributes":{"scikit_learn":"{\"_estimator_type\": \"regressor\"}"},"feature_names":["co2","precip","sst","tas","co2_lag1","co2_lag3","co2_lag6","co2_lag12","co2_lag24","co2_lag36","co2_roll3","co2_roll6","co2_roll12","co2_roll24","temperature_anomaly_lag1","temperature_anomaly_lag3","temperature_anomaly_lag6","temperature_anomaly_lag12","temperature_anomaly_lag24","temperature_anomaly_lag36","temperature_anomaly_roll3","temperature_anomaly_roll6","temperature_anomaly_roll12","temperature_anomaly_roll24","precip_lag1","precip_lag3","precip_lag6","precip_lag12","precip_lag24","precip_lag36","precip_roll3","precip_roll6","precip_roll12","precip_roll24","sst_lag1","sst_lag3","sst_lag6","sst_lag12","sst_lag24","sst_lag36","sst_roll3","sst_roll6","sst_roll12","sst_roll24","tas_lag1","tas_lag3","tas_lag6","tas_lag12","tas_lag24","tas_lag36","tas_roll3","tas_roll6","tas_roll12","tas_roll24","co2_x_temperature_anomaly","co2_x_precip","co2_x_sst","co2_x_tas","temperature_anomaly_x_precip","temperature_anomaly_x_sst","temperature_anomaly_x_tas","precip_x_sst","precip_x_tas","sst_x_tas"],"feature_types":["float","float","float","float","float","float","float","float","float","float","float","float","float","float","float","float","float","float","float","float","float","float","float","float","float","float","float","float","float","float","float","float","float","float","float","float","float","float","float","float","float","float","float","float","float","float","float","float","float","float","float","float","float","float","float","float","float","float","float","float","float","float","float","float"],"gradient_booster":{"model":{"cats":{"enc":[],"feature_segments":[],"sorted_idx":[]},"gbtree_model_param":{"num_parallel_tree":"1","num_trees":"2000"},"iteration_indptr":[0,1,2,3,4,5,6,7,8,9,10,11,12,13,14,15,16,17,18,19,20,21,22,23,24,25,26,27,28,29,30,31,32,33,34,35,36,37,38,39,40,41,42,43,44,45,46,47,48,49,50,51,52,53,54,55,56,57,58,59,60,61,62,63,64,65,66,67,68,69,70,71,72,73,74,75,76,77,78,79,80,81,82,83,84,85,86,87,88,89,90,91,92,93,94,95,96,97,98,99,100,101,102,103,104,105,106,107,108,109,110,111,112,113,114,115,116,117,118,119,120,121,122,123,124,125,126,127,128,129,130,131,132,133,134,135,136,137,138,139,140,141,142,143,144,145,146,147,148,149,150,151,152,153,154,155,156,157,158,159,160,161,162,163,164,165,166,167,168,169,170,171,172,173,174,175,176,177,178,179,180,181,182,183,184,185,186,187,188,189,190,191,192,193,194,195,196,197,198,199,200,201,202,203,204,205,206,207,208,209,210,211,212,213,214,215,216,217,218,219,220,221,222,223,224,225,226,227,228,229,230,231,232,233,234,235,236,237,238,239,240,241,242,243,244,245,246,247,248,249,250,251,252,253,254,255,256,257,258,259,260,261,262,263,264,265,266,267,268,269,270,271,272,273,274,275,276,277,278,279,280,281,282,283,284,285,286,287,288,289,290,291,292,293,294,295,296,297,298,299,300,301,302,303,304,305,306,307,308,309,310,311,312,313,314,315,316,317,318,319,320,321,322,323,324,325,326,327,328,329,330,331,332,333,334,335,336,337,338,339,340,341,342,343,344,345,346,347,348,349,350,351,352,353,354,355,356,357,358,359,360,361,362,363,364,365,366,367,368,369,370,371,372,373,374,375,376,377,378,379,380,381,382,383,384,385,386,387,388,389,390,391,392,393,394,395,396,397,398,399,400,401,402,403,404,405,406,407,408,409,410,411,412,413,414,415,416,417,418,419,420,421,422,423,424,425,426,427,428,429,430,431,432,433,434,435,436,437,438,439,440,441,442,443,444,445,446,447,448,449,450,451,452,453,454,455,456,457,458,459,460,461,462,463,464,465,466,467,468,469,470,471,472,473,474,475,476,477,478,479,480,481,482,483,484,485,486,487,488,489,490,491,492,493,494,495,496,497,498,499,500,501,502,503,504,505,506,507,508,509,510,511,512,513,514,515,516,517,518,519,520,521,522,523,524,525,526,527,528,529,530,531,532,533,534,535,536,537,538,539,540,541,542,543,544,545,546,547,548,549,550,551,552,553,554,555,556,557,558,559,560,561,562,563,564,565,566,567,568,569,570,571,572,573,574,575,576,577,578,579,580,581,582,583,584,585,586,587,588,589,590,591,592,593,594,595,596,597,598,599,600,601,602,603,604,605,606,607,608,609,610,611,612,613,614,615,616,617,618,619,620,621,622,623,624,625,626,627,628,629,630,631,632,633,634,635,636,637,638,639,640,641,642,643,644,645,646,647,648,649,650,651,652,653,654,655,656,657,658,659,660,661,662,663,664,665,666,667,668,669,670,671,672,673,674,675,676,677,678,679,680,681,682,683,684,685,686,687,688,689,690,691,692,693,694,695,696,697,698,699,700,701,702,703,704,705,706,707,708,709,710,711,712,713,714,715,716,717,718,719,720,721,722,723,724,725,726,727,728,729,730,731,732,733,734,735,736,737,738,739,740,741,742,743,744,745,746,747,748,749,750,751,752,753,754,755,756,757,758,759,760,761,762,763,764,765,766,767,768,769,770,771,772,773,774,775,776,777,778,779,780,781,782,783,784,785,786,787,788,789,790,791,792,793,794,795,796,797,798,799,800,801,802,803,804,805,806,807,808,809,810,811,812,813,814,815,816,817,818,819,820,821,822,823,824,825,826,827,828,829,830,831,832,833,834,835,836,837,838,839,840,841,842,843,844,845,846,847,848,849,850,851,852,853,854,855,856,857,858,859,860,861,862,863,864,865,866,867,868,869,870,871,872,873,874,875,876,877,878,879,880,881,882,883,884,885,886,887,888,889,890,891,892,893,894,895,896,897,898,899,900,901,902,903,904,905,906,907,908,909,910,911,912,913,914,915,916,917,918,919,920,921,922,923,924,925,926,927,928,929,930,931,932,933,934,935,936,937,938,939,940,941,942,943,944,945,946,947,948,949,950,951,952,953,954,955,956,957,958,959,960,961,962,963,964,965,966,967,968,969,970,971,972,973,974,975,976,977,978,979,980,981,982,983,984,985,986,987,988,989,990,991,992,993,994,995,996,997,998,999,1000,1001,1002,1003,1004,1005,1006,1007,1008,1009,1010,1011,1012,1013,1014,1015,1016,1017,1018,1019,1020,1021,1022,1023,1024,1025,1026,1027,1028,1029,1030,1031,1032,1033,1034,1035,1036,1037,1038,1039,1040,1041,1042,1043,1044,1045,1046,1047,1048,1049,1050,1051,1052,1053,1054,1055,1056,1057,1058,1059,1060,1061,1062,1063,1064,1065,1066,1067,1068,1069,1070,1071,1072,1073,1074,1075,1076,1077,1078,1079,1080,1081,1082,1083,1084,1085,1086,1087,1088,1089,1090,1091,1092,1093,1094,1095,1096,1097,1098,1099,1100,1101,1102,1103,1104,1105,1106,1107,1108,1109,1110,1111,1112,1113,1114,1115,1116,1117,1118,1119,1120,1121,1122,1123,1124,1125,1126,1127,1128,1129,1130,1131,1132,1133,1134,1135,1136,1137,1138,1139,1140,1141,1142,1143,1144,1145,1146,1147,1148,1149,1150,1151,1152,1153,1154,1155,1156,1157,1158,1159,1160,1161,1162,1163,1164,1165,1166,1167,1168,1169,1170,1171,1172,1173,1174,1175,1176,1177,1178,1179,1180,1181,1182,1183,1184,1185,1186,1187,1188,1189,1190,1191,1192,1193,1194,1195,1196,1197,1198,1199,1200,1201,1202,1203,1204,1205,1206,1207,1208,1209,1210,1211,1212,1213,1214,1215,1216,1217,1218,1219,1220,1221,1222,1223,1224,1225,1226,1227,1228,1229,1230,1231,1232,1233,1234,1235,1236,1237,1238,1239,1240,1241,1242,1243,1244,1245,1246,1247,1248,1249,1250,1251,1252,1253,1254,1255,1256,1257,1258,1259,1260,1261,1262,1263,1264,1265,1266,1267,1268,1269,1270,1271,1272,1273,1274,1275,1276,1277,1278,1279,1280,1281,1282,1283,1284,1285,1286,1287,1288,1289,1290,1291,1292,1293,1294,1295,1296,1297,1298,1299,1300,1301,1302,1303,1304,1305,1306,1307,1308,1309,1310,1311,1312,1313,1314,1315,1316,1317,1318,1319,1320,1321,1322,1323,1324,1325,1326,1327,1328,1329,1330,1331,1332,1333,1334,1335,1336,1337,1338,1339,1340,1341,1342,1343,1344,1345,1346,1347,1348,1349,1350,1351,1352,1353,1354,1355,1356,1357,1358,1359,1360,1361,1362,1363,1364,1365,1366,1367,1368,1369,1370,1371,1372,1373,1374,1375,1376,1377,1378,1379,1380,1381,1382,1383,1384,1385,1386,1387,1388,1389,1390,1391,1392,1393,1394,1395,1396,1397,1398,1399,1400,1401,1402,1403,1404,1405,1406,1407,1408,1409,1410,1411,1412,1413,1414,1415,1416,1417,1418,1419,1420,1421,1422,1423,1424,1425,1426,1427,1428,1429,1430,1431,1432,1433,1434,1435,1436,1437,1438,1439,1440,1441,1442,1443,1444,1445,1446,1447,1448,1449,1450,1451,1452,1453,1454,1455,1456,1457,1458,1459,1460,1461,1462,1463,1464,1465,1466,1467,1468,1469,1470,1471,1472,1473,1474,1475,1476,1477,1478,1479,1480,1481,1482,1483,1484,1485,1486,1487,1488,1489,1490,1491,1492,1493,1494,1495,1496,1497,1498,1499,1500,1501,1502,1503,1504,1505,1506,1507,1508,1509,1510,1511,1512,1513,1514,1515,1516,1517,1518,1519,1520,1521,1522,1523,1524,1525,1526,1527,1528,1529,1530,1531,1532,1533,1534,1535,1536,1537,1538,1539,1540,1541,1542,1543,1544,1545,1546,1547,1548,1549,1550,1551,1552,1553,1554,1555,1556,1557,1558,1559,1560,1561,1562,1563,1564,1565,1566,1567,1568,1569,1570,1571,1572,1573,1574,1575,1576,1577,1578,1579,1580,1581,1582,1583,1584,1585,1586,1587,1588,1589,1590,1591,1592,1593,1594,1595,1596,1597,1598,1599,1600,1601,1602,1603,1604,1605,1606,1607,1608,1609,1610,1611,1612,1613,1614,1615,1616,1617,1618,1619,1620,1621,1622,1623,1624,1625,1626,1627,1628,1629,1630,1631,1632,1633,1634,1635,1636,1637,1638,1639,1640,1641,1642,1643,1644,1645,1646,1647,1648,1649,1650,1651,1652,1653,1654,1655,1656,1657,1658,1659,1660,1661,1662,1663,1664,1665,1666,1667,1668,1669,1670,1671,1672,1673,1674,1675,1676,1677,1678,1679,1680,1681,1682,1683,1684,1685,1686,1687,1688,1689,1690,1691,1692,1693,1694,1695,1696,1697,1698,1699,1700,1701,1702,1703,1704,1705,1706,1707,1708,1709,1710,1711,1712,1713,1714,1715,1716,1717,1718,1719,1720,1721,1722,1723,1724,1725,1726,1727,1728,1729,1730,1731,1732,1733,1734,1735,1736,1737,1738,1739,1740,1741,1742,1743,1744,1745,1746,1747,1748,1749,1750,1751,1752,1753,1754,1755,1756,1757,1758,1759,1760,1761,1762,1763,1764,1765,1766,1767,1768,1769,1770,1771,1772,1773,1774,1775,1776,1777,1778,1779,1780,1781,1782,1783,1784,1785,1786,1787,1788,1789,1790,1791,1792,1793,1794,1795,1796,1797,1798,1799,1800,1801,1802,1803,1804,1805,1806,1807,1808,1809,1810,1811,1812,1813,1814,1815,1816,1817,1818,1819,1820,1821,1822,1823,1824,1825,1826,1827,1828,1829,1830,1831,1832,1833,1834,1835,1836,1837,1838,1839,1840,1841,1842,1843,1844,1845,1846,1847,1848,1849,1850,1851,1852,1853,1854,1855,1856,1857,1858,1859,1860,1861,1862,1863,1864,1865,1866,1867,1868,1869,1870,1871,1872,1873,1874,1875,1876,1877,1878,1879,1880,1881,1882,1883,1884,1885,1886,1887,1888,1889,1890,1891,1892,1893,1894,1895,1896,1897,1898,1899,1900,1901,1902,1903,1904,1905,1906,1907,1908,1909,1910,1911,1912,1913,1914,1915,1916,1917,1918,1919,1920,1921,1922,1923,1924,1925,1926,1927,1928,1929,1930,1931,1932,1933,1934,1935,1936,1937,1938,1939,1940,1941,1942,1943,1944,1945,1946,1947,1948,1949,1950,1951,1952,1953,1954,1955,1956,1957,1958,1959,1960,1961,1962,1963,1964,1965,1966,1967,1968,1969,1970,1971,1972,1973,1974,1975,1976,1977,1978,1979,1980,1981,1982,1983,1984,1985,1986,1987,1988,1989,1990,1991,1992,1993,1994,1995,1996,1997,1998,1999,2000],"tree_info":[0,0,0,0,0,0,0,0,0,0,0,0,0,0,0,0,0,0,0,0,0,0,0,0,0,0,0,0,0,0,0,0,0,0,0,0,0,0,0,0,0,0,0,0,0,0,0,0,0,0,0,0,0,0,0,0,0,0,0,0,0,0,0,0,0,0,0,0,0,0,0,0,0,0,0,0,0,0,0,0,0,0,0,0,0,0,0,0,0,0,0,0,0,0,0,0,0,0,0,0,0,0,0,0,0,0,0,0,0,0,0,0,0,0,0,0,0,0,0,0,0,0,0,0,0,0,0,0,0,0,0,0,0,0,0,0,0,0,0,0,0,0,0,0,0,0,0,0,0,0,0,0,0,0,0,0,0,0,0,0,0,0,0,0,0,0,0,0,0,0,0,0,0,0,0,0,0,0,0,0,0,0,0,0,0,0,0,0,0,0,0,0,0,0,0,0,0,0,0,0,0,0,0,0,0,0,0,0,0,0,0,0,0,0,0,0,0,0,0,0,0,0,0,0,0,0,0,0,0,0,0,0,0,0,0,0,0,0,0,0,0,0,0,0,0,0,0,0,0,0,0,0,0,0,0,0,0,0,0,0,0,0,0,0,0,0,0,0,0,0,0,0,0,0,0,0,0,0,0,0,0,0,0,0,0,0,0,0,0,0,0,0,0,0,0,0,0,0,0,0,0,0,0,0,0,0,0,0,0,0,0,0,0,0,0,0,0,0,0,0,0,0,0,0,0,0,0,0,0,0,0,0,0,0,0,0,0,0,0,0,0,0,0,0,0,0,0,0,0,0,0,0,0,0,0,0,0,0,0,0,0,0,0,0,0,0,0,0,0,0,0,0,0,0,0,0,0,0,0,0,0,0,0,0,0,0,0,0,0,0,0,0,0,0,0,0,0,0,0,0,0,0,0,0,0,0,0,0,0,0,0,0,0,0,0,0,0,0,0,0,0,0,0,0,0,0,0,0,0,0,0,0,0,0,0,0,0,0,0,0,0,0,0,0,0,0,0,0,0,0,0,0,0,0,0,0,0,0,0,0,0,0,0,0,0,0,0,0,0,0,0,0,0,0,0,0,0,0,0,0,0,0,0,0,0,0,0,0,0,0,0,0,0,0,0,0,0,0,0,0,0,0,0,0,0,0,0,0,0,0,0,0,0,0,0,0,0,0,0,0,0,0,0,0,0,0,0,0,0,0,0,0,0,0,0,0,0,0,0,0,0,0,0,0,0,0,0,0,0,0,0,0,0,0,0,0,0,0,0,0,0,0,0,0,0,0,0,0,0,0,0,0,0,0,0,0,0,0,0,0,0,0,0,0,0,0,0,0,0,0,0,0,0,0,0,0,0,0,0,0,0,0,0,0,0,0,0,0,0,0,0,0,0,0,0,0,0,0,0,0,0,0,0,0,0,0,0,0,0,0,0,0,0,0,0,0,0,0,0,0,0,0,0,0,0,0,0,0,0,0,0,0,0,0,0,0,0,0,0,0,0,0,0,0,0,0,0,0,0,0,0,0,0,0,0,0,0,0,0,0,0,0,0,0,0,0,0,0,0,0,0,0,0,0,0,0,0,0,0,0,0,0,0,0,0,0,0,0,0,0,0,0,0,0,0,0,0,0,0,0,0,0,0,0,0,0,0,0,0,0,0,0,0,0,0,0,0,0,0,0,0,0,0,0,0,0,0,0,0,0,0,0,0,0,0,0,0,0,0,0,0,0,0,0,0,0,0,0,0,0,0,0,0,0,0,0,0,0,0,0,0,0,0,0,0,0,0,0,0,0,0,0,0,0,0,0,0,0,0,0,0,0,0,0,0,0,0,0,0,0,0,0,0,0,0,0,0,0,0,0,0,0,0,0,0,0,0,0,0,0,0,0,0,0,0,0,0,0,0,0,0,0,0,0,0,0,0,0,0,0,0,0,0,0,0,0,0,0,0,0,0,0,0,0,0,0,0,0,0,0,0,0,0,0,0,0,0,0,0,0,0,0,0,0,0,0,0,0,0,0,0,0,0,0,0,0,0,0,0,0,0,0,0,0,0,0,0,0,0,0,0,0,0,0,0,0,0,0,0,0,0,0,0,0,0,0,0,0,0,0,0,0,0,0,0,0,0,0,0,0,0,0,0,0,0,0,0,0,0,0,0,0,0,0,0,0,0,0,0,0,0,0,0,0,0,0,0,0,0,0,0,0,0,0,0,0,0,0,0,0,0,0,0,0,0,0,0,0,0,0,0,0,0,0,0,0,0,0,0,0,0,0,0,0,0,0,0,0,0,0,0,0,0,0,0,0,0,0,0,0,0,0,0,0,0,0,0,0,0,0,0,0,0,0,0,0,0,0,0,0,0,0,0,0,0,0,0,0,0,0,0,0,0,0,0,0,0,0,0,0,0,0,0,0,0,0,0,0,0,0,0,0,0,0,0,0,0,0,0,0,0,0,0,0,0,0,0,0,0,0,0,0,0,0,0,0,0,0,0,0,0,0,0,0,0,0,0,0,0,0,0,0,0,0,0,0,0,0,0,0,0,0,0,0,0,0,0,0,0,0,0,0,0,0,0,0,0,0,0,0,0,0,0,0,0,0,0,0,0,0,0,0,0,0,0,0,0,0,0,0,0,0,0,0,0,0,0,0,0,0,0,0,0,0,0,0,0,0,0,0,0,0,0,0,0,0,0,0,0,0,0,0,0,0,0,0,0,0,0,0,0,0,0,0,0,0,0,0,0,0,0,0,0,0,0,0,0,0,0,0,0,0,0,0,0,0,0,0,0,0,0,0,0,0,0,0,0,0,0,0,0,0,0,0,0,0,0,0,0,0,0,0,0,0,0,0,0,0,0,0,0,0,0,0,0,0,0,0,0,0,0,0,0,0,0,0,0,0,0,0,0,0,0,0,0,0,0,0,0,0,0,0,0,0,0,0,0,0,0,0,0,0,0,0,0,0,0,0,0,0,0,0,0,0,0,0,0,0,0,0,0,0,0,0,0,0,0,0,0,0,0,0,0,0,0,0,0,0,0,0,0,0,0,0,0,0,0,0,0,0,0,0,0,0,0,0,0,0,0,0,0,0,0,0,0,0,0,0,0,0,0,0,0,0,0,0,0,0,0,0,0,0,0,0,0,0,0,0,0,0,0,0,0,0,0,0,0,0,0,0,0,0,0,0,0,0,0,0,0,0,0,0,0,0,0,0,0,0,0,0,0,0,0,0,0,0,0,0,0,0,0,0,0,0,0,0,0,0,0,0,0,0,0,0,0,0,0,0,0,0,0,0,0,0,0,0,0,0,0,0,0,0,0,0,0,0,0,0,0,0,0,0,0,0,0,0,0,0,0,0,0,0,0,0,0,0,0,0,0,0,0,0,0,0,0,0,0,0,0,0,0,0,0,0,0,0,0,0,0,0,0,0,0,0,0,0,0,0,0,0,0,0,0,0,0,0,0,0,0,0,0,0,0,0,0,0,0,0,0,0,0,0,0,0,0,0,0,0,0,0,0,0,0,0,0,0,0,0,0,0,0,0,0,0,0,0,0,0,0,0,0,0,0,0,0,0,0,0,0,0,0,0,0,0,0,0,0,0,0,0,0,0,0,0,0,0,0,0,0,0,0,0,0,0,0,0,0,0,0,0,0,0,0,0,0,0,0,0,0,0,0,0,0,0,0,0,0,0,0,0,0,0,0,0,0,0,0,0,0,0,0,0,0,0,0,0,0,0,0,0,0,0,0,0,0,0,0,0,0,0,0,0,0,0,0,0,0,0,0,0,0,0,0,0,0,0,0,0,0,0,0,0,0,0,0,0,0,0,0,0,0,0,0,0,0,0,0,0,0,0,0,0,0,0,0,0,0,0,0,0,0,0,0,0,0,0,0,0,0,0,0,0,0,0,0,0,0,0,0,0,0,0,0,0,0,0,0,0,0,0,0,0,0,0,0,0,0,0,0,0,0,0,0,0,0,0,0,0,0,0,0,0,0,0,0,0,0,0,0,0,0,0,0,0,0,0,0,0,0,0,0,0,0,0,0,0,0,0,0,0,0,0,0,0,0,0,0,0,0,0,0,0,0,0,0,0,0,0,0,0,0,0,0,0,0,0,0,0,0,0,0,0,0,0,0,0,0,0,0,0,0,0,0,0,0,0,0,0,0,0,0,0,0,0,0,0,0,0,0,0,0,0,0,0,0,0,0,0,0,0,0,0,0,0,0,0,0,0,0,0,0,0,0,0,0,0,0,0,0,0,0,0,0,0,0,0,0,0,0,0,0,0,0,0,0,0,0,0,0,0,0,0,0,0,0,0,0,0,0,0,0,0,0,0,0,0,0,0,0,0,0,0,0,0,0,0,0,0,0,0,0,0,0,0,0,0,0,0,0,0,0,0,0,0,0,0,0,0,0,0,0,0,0,0,0,0,0,0,0,0,0,0,0,0,0,0,0,0,0,0,0,0,0,0,0,0,0,0,0,0,0,0,0,0,0,0,0,0,0,0,0,0,0,0,0,0,0,0,0,0],"trees":[{"base_weights":[-6.508913E-3,-2.0264599E-1,1.7721651E-1,-3.4915248E-1,-1.2565586E-1,8.673852E-2,2.9102597E-1,-1.2086989E-2,-8.281484E-3,-1.8068328E-1,-7.08828E-2,2.8026165E-2,1.2324081E-1,2.4563389E-1,1.2887822E-2,-5.82081E-3,-4.0750345E-3,-2.7578096E-3,-3.8497403E-2,6.8746866E-3,4.385164E-2,2.8103492E-3,4.584018E-3,6.210947E-3,8.272625E-3,-1.4464548E-3,-7.258942E-4,-2.3665698E-5,3.5246764E-4,6.6084333E-4,1.4158685E-3],"categories":[],"categories_nodes":[],"categories_segments":[],"categories_sizes":[],"default_left":[0,0,0,0,0,0,0,0,0,0,0,0,0,0,0,0,0,0,0,0,0,0,0,0,0,0,0,0,0,0,0],"id":0,"left_children":[1,3,5,7,9,11,13,-1,-1,15,17,19,21,23,-1,-1,-1,-1,25,27,29,-1,-1,-1,-1,-1,-1,-1,-1,-1,-1],"loss_changes":[1.2086115E1,1.776896E0,1.7531924E0,8.342123E-2,3.1074822E-1,2.0631117E-1,3.526621E-1,0E0,0E0,2.1088123E-4,3.4054965E-2,1.2759741E-2,3.5429537E-2,1.4874935E-3,0E0,0E0,0E0,0E0,1.963187E-3,6.909632E-4,3.725402E-4,0E0,0E0,0E0,0E0,0E0,0E0,0E0,0E0,0E0,0E0],"parents":[2147483647,0,0,1,1,2,2,3,3,4,4,5,5,6,6,9,9,10,10,11,11,12,12,13,13,18,18,19,19,20,20],"right_children":[2,4,6,8,10,12,14,-1,-1,16,18,20,22,24,-1,-1,-1,-1,26,28,30,-1,-1,-1,-1,-1,-1,-1,-1,-1,-1],"split_conditions":[-1.9748108E0,-5.0395947E0,2.1525446E1,-6.485491E0,-3.5117369E0,-2.2981537E1,7.9625175E1,-1.2086989E-2,-8.281484E-3,-4.0534234E0,-7.051809E1,-1.5172173E0,-3.028404E0,4.312266E1,1.2887822E-2,-5.82081E-3,-4.0750345E-3,-2.7578096E-3,-3.8148692E-1,-1.739095E0,-1.3852379E0,2.8103492E-3,4.584018E-3,6.210947E-3,8.272625E-3,-1.4464548E-3,-7.258942E-4,-2.3665698E-5,3.5246764E-4,6.6084333E-4,1.4158685E-3],"split_indices":[59,59,54,59,59,54,54,0,0,59,54,59,54,54,0,0,0,0,58,59,59,0,0,0,0,0,0,0,0,0,0],"split_type":[0,0,0,0,0,0,0,0,0,0,0,0,0,0,0,0,0,0,0,0,0,0,0,0,0,0,0,0,0,0,0],"sum_hessian":[3.33E2,1.61E2,1.72E2,5.4E1,1.07E2,9.7E1,7.5E1,2.8E1,2.6E1,5.2E1,5.5E1,3.8E1,5.9E1,5.9E1,1.6E1,3.7E1,1.5E1,3.2E1,2.3E1,1.7E1,2.1E1,3.2E1,2.7E1,3E1,2.9E1,1.2E1,1.1E1,7E0,1E1,4E0,1.7E1],"tree_param":{"num_deleted":"0","num_feature":"64","num_nodes":"31","size_leaf_vector":"1"}},{"base_weights":[-2.7099098E-3,-1.8976465E-1,1.9128428E-1,-3.1135744E-1,-9.7102955E-2,1.0805276E-1,3.3015394E-1,-1.1680589E-2,-7.3451614E-3,-1.4703652E-1,-5.0676618E-2,5.3911336E-2,1.639253E-1,8.145884E-3,1.49135385E-2,-4.9394746E-3,-3.0667293E-3,-2.1845857E-3,-2.5367498E-2,2.3121467E-2,7.746137E-2,3.5249235E-3,5.503551E-3,-9.78721E-4,-2.3110135E-4,2.6322366E-4,9.1326836E-4,1.3157972E-3,2.4611927E-3],"categories":[],"categories_nodes":[],"categories_segments":[],"categories_sizes":[],"default_left":[0,0,0,0,0,0,0,0,0,0,0,0,0,0,0,0,0,0,0,0,0,0,0,0,0,0,0,0,0],"id":1,"left_children":[1,3,5,7,9,11,13,-1,-1,15,17,19,21,-1,-1,-1,-1,-1,23,25,27,-1,-1,-1,-1,-1,-1,-1,-1],"loss_changes":[1.1989415E1,1.8588281E0,1.8319526E0,2.601905E-1,2.1639061E-1,3.0157697E-1,4.2726946E-1,0E0,0E0,1.6266465E-2,2.7037084E-2,3.7151337E-2,1.9643664E-2,0E0,0E0,0E0,0E0,0E0,3.056746E-3,2.3263358E-3,3.2807887E-4,0E0,0E0,0E0,0E0,0E0,0E0,0E0,0E0],"parents":[2147483647,0,0,1,1,2,2,3,3,4,4,5,5,6,6,9,9,10,10,11,11,12,12,18,18,19,19,20,20],"right_children":[2,4,6,8,10,12,14,-1,-1,16,18,20,22,-1,-1,-1,-1,-1,24,26,28,-1,-1,-1,-1,-1,-1,-1,-1],"split_conditions":[-2.8605258E-1,-4.6525407E0,3.5594624E1,-1.6264566E2,-5.233936E-1,-7.888899E0,6.195964E-1,-1.1680589E-2,-7.3451614E-3,-9.442829E1,-2.542852E0,-3.0774014E1,8.533904E0,8.145884E-3,1.49135385E-2,-4.9394746E-3,-3.0667293E-3,-2.1845857E-3,-3.3778194E-1,-2.5849646E-1,-2.3873379E1,3.5249235E-3,5.503551E-3,-9.78721E-4,-2.3110135E-4,2.6322366E-4,9.1326836E-4,1.3157972E-3,2.4611927E-3],"split_indices":[58,59,54,54,58,54,58,0,0,54,59,54,54,0,0,0,0,0,58,58,54,0,0,0,0,0,0,0,0],"split_type":[0,0,0,0,0,0,0,0,0,0,0,0,0,0,0,0,0,0,0,0,0,0,0,0,0,0,0,0,0],"sum_hessian":[3.28E2,1.67E2,1.61E2,7.1E1,9.6E1,1.02E2,5.9E1,3E1,4.1E1,4.5E1,5.1E1,5.3E1,4.9E1,4.6E1,1.3E1,3E1,1.5E1,2.6E1,2.5E1,2.4E1,2.9E1,1.7E1,3.2E1,1.7E1,8E0,9E0,1.5E1,5E0,2.4E1],"tree_param":{"num_deleted":"0","num_feature":"64","num_nodes":"29","size_leaf_vector":"1"}},{"base_weights":[7.5049796E-3,-1.7456026E-1,1.8403874E-1,-3.2309103E-1,-1.0230275E-1,1.1501832E-1,3.3212888E-1,-1.1239221E-2,-7.346085E-3,-1.5874024E-1,-5.7317782E-2,5.6578666E-2,1.6728222E-1,8.1411945E-3,1.4608925E-2,-5.201838E-3,-3.397073E-3,-7.9629935E-2,-2.6236888E-2,2.9800849E-2,2.4569535E-3,3.8699694E-3,5.603721E-3,-2.6171517E-3,-1.598994E-3,-1.0393533E-3,-1.3059471E-4,3.9698355E-4,1.1682607E-3],"categories":[],"categories_nodes":[],"categories_segments":[],"categories_sizes":[],"default_left":[0,0,0,0,0,0,0,0,0,0,0,0,0,0,0,0,0,0,0,0,0,0,0,0,0,0,0,0,0],"id":2,"left_children":[1,3,5,7,9,11,13,-1,-1,15,17,19,21,-1,-1,-1,-1,23,25,27,-1,-1,-1,-1,-1,-1,-1,-1,-1],"loss_changes":[1.0522835E1,1.6904092E0,1.6529293E0,1.0039997E-1,2.6886153E-1,3.4049594E-1,3.3247328E-1,0E0,0E0,8.580446E-3,4.1320965E-2,3.5175294E-2,1.6045213E-2,0E0,0E0,0E0,0E0,1.672253E-3,5.0079133E-3,3.8040113E-3,0E0,0E0,0E0,0E0,0E0,0E0,0E0,0E0,0E0],"parents":[2147483647,0,0,1,1,2,2,3,3,4,4,5,5,6,6,9,9,10,10,11,11,12,12,17,17,18,18,19,19],"right_children":[2,4,6,8,10,12,14,-1,-1,16,18,20,22,-1,-1,-1,-1,24,26,28,-1,-1,-1,-1,-1,-1,-1,-1,-1],"split_conditions":[-1.739095E0,-1.2993048E2,4.004892E1,-6.3239074E0,-3.35227E0,-5.4799595E0,1.0628054E2,-1.1239221E-2,-7.346085E-3,-3.9082859E0,-2.6100368E0,-2.766807E1,1.2428277E1,8.1411945E-3,1.4608925E-2,-5.201838E-3,-3.397073E-3,-2.8246388E0,-5.3718678E1,-2.3791318E-1,2.4569535E-3,3.8699694E-3,5.603721E-3,-2.6171517E-3,-1.598994E-3,-1.0393533E-3,-1.3059471E-4,3.9698355E-4,1.1682607E-3],"split_indices":[59,54,54,59,59,54,54,0,0,59,59,54,54,0,0,0,0,59,54,58,0,0,0,0,0,0,0,0,0],"split_type":[0,0,0,0,0,0,0,0,0,0,0,0,0,0,0,0,0,0,0,0,0,0,0,0,0,0,0,0,0],"sum_hessian":[3.25E2,1.6E2,1.65E2,5.1E1,1.09E2,1.14E2,5.1E1,2.8E1,2.3E1,4.7E1,6.2E1,5.5E1,5.9E1,3.9E1,1.2E1,3.3E1,1.4E1,3.5E1,2.7E1,2.8E1,2.7E1,2.3E1,3.6E1,2.5E1,1E1,1.9E1,8E0,1.1E1,1.7E1],"tree_param":{"num_deleted":"0","num_feature":"64","num_nodes":"29","size_leaf_vector":"1"}},{"base_weights":[6.282402E-3,-1.8280236E-1,1.8471405E-1,-3.123657E-1,-1.0363318E-1,1.15168005E-1,3.371771E-1,-1.1261542E-2,-7.587566E-3,-1.515669E-1,-5.775123E-2,5.6714173E-2,1.7233971E-1,8.217408E-3,1.490075E-2,-5.0411574E-3,-3.4891819E-3,-7.4341096E-2,-2.1134852E-2,2.6768314E-2,2.4841847E-3,3.8967638E-3,5.6220205E-3,-2.4883826E-3,-1.515096E-3,-8.267123E-4,-7.005807E-5,2.7135373E-4,1.0764666E-3],"categories":[],"categories_nodes":[],"categories_segments":[],"categories_sizes":[],"default_left":[0,0,0,0,0,0,0,0,0,0,0,0,0,0,0,0,0,0,0,0,0,0,0,0,0,0,0,0,0],"id":3,"left_children":[1,3,5,7,9,11,13,-1,-1,15,17,19,21,-1,-1,-1,-1,23,25,27,-1,-1,-1,-1,-1,-1,-1,-1,-1],"loss_changes":[1.168712E1,1.6864533E0,1.8428926E0,1.2283468E-1,2.2306097E-1,4.0333545E-1,3.9378738E-1,0E0,0E0,6.2844753E-3,3.2253876E-2,4.672122E-2,1.0554433E-2,0E0,0E0,0E0,0E0,2.8088987E-3,2.2408916E-3,4.650185E-3,0E0,0E0,0E0,0E0,0E0,0E0,0E0,0E0,0E0],"parents":[2147483647,0,0,1,1,2,2,3,3,4,4,5,5,6,6,9,9,10,10,11,11,12,12,17,17,18,18,19,19],"right_children":[2,4,6,8,10,12,14,-1,-1,16,18,20,22,-1,-1,-1,-1,24,26,28,-1,-1,-1,-1,-1,-1,-1,-1,-1],"split_conditions":[-2.7995276E-1,-4.8965497E0,4.453551E1,-6.630631E0,-3.35227E0,-1.6201465E0,6.293096E-1,-1.1261542E-2,-7.587566E-3,-3.9827316E0,-4.0492103E-1,-2.766807E1,1.7100016E1,8.217408E-3,1.490075E-2,-5.0411574E-3,-3.4891819E-3,-2.8246388E0,-1.9748108E0,-4.0934807E1,2.4841847E-3,3.8967638E-3,5.6220205E-3,-2.4883826E-3,-1.515096E-3,-8.267123E-4,-7.005807E-5,2.7135373E-4,1.0764666E-3],"split_indices":[58,59,54,59,59,54,58,0,0,59,58,54,54,0,0,0,0,59,59,54,0,0,0,0,0,0,0,0,0],"split_type":[0,0,0,0,0,0,0,0,0,0,0,0,0,0,0,0,0,0,0,0,0,0,0,0,0,0,0,0,0],"sum_hessian":[3.44E2,1.67E2,1.77E2,6.2E1,1.05E2,1.23E2,5.4E1,2.7E1,3.5E1,5E1,5.5E1,6.2E1,6.1E1,4.1E1,1.3E1,3.1E1,1.9E1,3.7E1,1.8E1,3E1,3.2E1,1.9E1,4.2E1,2.5E1,1.2E1,1.3E1,5E0,1.1E1,1.9E1],"tree_param":{"num_deleted":"0","num_feature":"64","num_nodes":"29","size_leaf_vector":"1"}},{"base_weights":[3.6391595E-3,-1.7417982E-1,1.7641604E-1,-3.072906E-1,-9.784434E-2,1.1166207E-1,3.2891127E-1,-1.069119E-2,-6.9884527E-3,-1.4989868E-1,-5.394496E-2,5.984961E-2,1.672734E-1,8.036573E-3,1.4545819E-2,-4.9426877E-3,-3.3873725E-3,-7.162978E-2,-2.2623524E-2,2.4489244E-2,2.4860424E-3,3.7885106E-3,5.474948E-3,-2.4677166E-3,-1.5689298E-3,-8.949093E-4,-2.0947264E-4,2.740999E-4,1.055542E-3],"categories":[],"categories_nodes":[],"categories_segments":[],"categories_sizes":[],"default_left":[0,0,0,0,0,0,0,0,0,0,0,0,0,0,0,0,0,0,0,0,0,0,0,0,0,0,0,0,0],"id":4,"left_children":[1,3,5,7,9,11,13,-1,-1,15,17,19,21,-1,-1,-1,-1,23,25,27,-1,-1,-1,-1,-1,-1,-1,-1,-1],"loss_changes":[1.0734626E1,1.7136574E0,1.70572E0,1.273408E-1,2.4440539E-1,3.51614E-1,3.4091616E-1,0E0,0E0,5.2626133E-3,3.250882E-2,5.226162E-2,9.912729E-3,0E0,0E0,0E0,0E0,2.8914511E-3,2.477928E-3,4.244769E-3,0E0,0E0,0E0,0E0,0E0,0E0,0E0,0E0,0E0],"parents":[2147483647,0,0,1,1,2,2,3,3,4,4,5,5,6,6,9,9,10,10,11,11,12,12,17,17,18,18,19,19],"right_children":[2,4,6,8,10,12,14,-1,-1,16,18,20,22,-1,-1,-1,-1,24,26,28,-1,-1,-1,-1,-1,-1,-1,-1,-1],"split_conditions":[-2.8605258E-1,-1.2771407E2,1.6772478E0,-6.3239074E0,-5.5807966E-1,-1.6201465E0,6.293096E-1,-1.069119E-2,-6.9884527E-3,-3.9827316E0,-2.542852E0,-2.7739996E1,1.7100016E1,8.036573E-3,1.4545819E-2,-4.9426877E-3,-3.3873725E-3,-2.8734593E0,-3.3778194E-1,-1.5172173E0,2.4860424E-3,3.7885106E-3,5.474948E-3,-2.4677166E-3,-1.5689298E-3,-8.949093E-4,-2.0947264E-4,2.740999E-4,1.055542E-3],"split_indices":[58,54,59,59,58,54,58,0,0,59,59,54,54,0,0,0,0,59,58,59,0,0,0,0,0,0,0,0,0],"split_type":[0,0,0,0,0,0,0,0,0,0,0,0,0,0,0,0,0,0,0,0,0,0,0,0,0,0,0,0,0],"sum_hessian":[3.47E2,1.71E2,1.76E2,6.1E1,1.1E2,1.25E2,5.1E1,3.4E1,2.7E1,4.9E1,6.1E1,6.6E1,5.9E1,3.9E1,1.2E1,3.2E1,1.7E1,3.8E1,2.3E1,2.7E1,3.9E1,1.9E1,4E1,2.2E1,1.6E1,1.5E1,8E0,1.2E1,1.5E1],"tree_param":{"num_deleted":"0","num_feature":"64","num_nodes":"29","size_leaf_vector":"1"}},{"base_weights":[-1.25333015E-2,-1.8478884E-1,1.5589714E-1,-3.0580223E-1,-1.1337512E-1,8.0741554E-2,2.7931443E-1,-1.092786E-2,-7.5037386E-3,-1.5885998E-1,-6.627878E-2,3.563091E-2,1.2911862E-1,6.960615E-3,1.2986882E-2,-5.1919306E-3,-3.6423076E-3,-2.5206138E-3,-4.0452715E-2,1.1691472E-2,5.526865E-2,2.945241E-3,4.4148634E-3,-1.3641308E-3,-4.8819528E-4,1.0626462E-4,6.609207E-4,1.1634675E-3,1.9202224E-3],"categories":[],"categories_nodes":[],"categories_segments":[],"categories_sizes":[],"default_left":[0,0,0,0,0,0,0,0,0,0,0,0,0,0,0,0,0,0,0,0,0,0,0,0,0,0,0,0,0],"id":5,"left_children":[1,3,5,7,9,11,13,-1,-1,15,17,19,21,-1,-1,-1,-1,-1,23,25,27,-1,-1,-1,-1,-1,-1,-1,-1],"loss_changes":[1.0107909E1,1.4465508E0,1.6072807E0,9.637594E-2,2.2343242E-1,2.3715329E-1,3.6031294E-1,0E0,0E0,4.149556E-3,2.16721E-2,2.7055472E-2,1.2366354E-2,0E0,0E0,0E0,0E0,0E0,2.1698326E-3,2.2824206E-3,1.660265E-3,0E0,0E0,0E0,0E0,0E0,0E0,0E0,0E0],"parents":[2147483647,0,0,1,1,2,2,3,3,4,4,5,5,6,6,9,9,10,10,11,11,12,12,18,18,19,19,20,20],"right_children":[2,4,6,8,10,12,14,-1,-1,16,18,20,22,-1,-1,-1,-1,-1,24,26,28,-1,-1,-1,-1,-1,-1,-1,-1],"split_conditions":[-1.9748108E0,-5.130424E0,2.920726E1,-1.7359866E2,-3.5117369E0,-1.4513094E1,9.911194E1,-1.092786E-2,-7.5037386E-3,-4.199592E0,-2.8246388E0,-3.5518986E1,2.419109E0,6.960615E-3,1.2986882E-2,-5.1919306E-3,-3.6423076E-3,-2.5206138E-3,-6.0880592E1,-1.6366228E0,-2.766807E1,2.945241E-3,4.4148634E-3,-1.3641308E-3,-4.8819528E-4,1.0626462E-4,6.609207E-4,1.1634675E-3,1.9202224E-3],"split_indices":[59,59,54,54,59,54,54,0,0,59,59,54,54,0,0,0,0,0,54,59,54,0,0,0,0,0,0,0,0],"split_type":[0,0,0,0,0,0,0,0,0,0,0,0,0,0,0,0,0,0,0,0,0,0,0,0,0,0,0,0,0],"sum_hessian":[3.46E2,1.71E2,1.75E2,6.2E1,1.09E2,1.1E2,6.5E1,2.7E1,3.5E1,5.4E1,5.5E1,5.8E1,5.2E1,5.2E1,1.3E1,3.6E1,1.8E1,3.1E1,2.4E1,2.7E1,3.1E1,2.2E1,3E1,1.9E1,5E0,1.6E1,1.1E1,1.3E1,1.8E1],"tree_param":{"num_deleted":"0","num_feature":"64","num_nodes":"29","size_leaf_vector":"1"}},{"base_weights":[1.5828154E-3,-1.6994868E-1,1.720708E-1,-3.020321E-1,-1.0432604E-1,1.10210516E-1,3.1238037E-1,-1.0773749E-2,-7.3839566E-3,-1.5387297E-1,-5.6849103E-2,5.7479188E-2,1.6248153E-1,7.6268073E-3,1.3149831E-2,-5.0550457E-3,-3.5772193E-3,-7.640407E-2,-2.4778496E-2,2.5986763E-2,2.3688017E-3,3.7621234E-3,5.2984147E-3,-2.527032E-3,-1.4970162E-3,-1.0546088E-3,-2.690842E-4,3.1504626E-4,1.1455623E-3],"categories":[],"categories_nodes":[],"categories_segments":[],"categories_sizes":[],"default_left":[0,0,0,0,0,0,0,0,0,0,0,0,0,0,0,0,0,0,0,0,0,0,0,0,0,0,0,0,0],"id":6,"left_children":[1,3,5,7,9,11,13,-1,-1,15,17,19,21,-1,-1,-1,-1,23,25,27,-1,-1,-1,-1,-1,-1,-1,-1,-1],"loss_changes":[9.691481E0,1.3940859E0,1.4012351E0,6.690884E-2,2.5343513E-1,3.118335E-1,2.3395681E-1,0E0,0E0,3.348112E-3,3.485486E-2,3.8262084E-2,3.91829E-3,0E0,0E0,0E0,0E0,2.4686307E-3,3.5909293E-3,4.467942E-3,0E0,0E0,0E0,0E0,0E0,0E0,0E0,0E0,0E0],"parents":[2147483647,0,0,1,1,2,2,3,3,4,4,5,5,6,6,9,9,10,10,11,11,12,12,17,17,18,18,19,19],"right_children":[2,4,6,8,10,12,14,-1,-1,16,18,20,22,-1,-1,-1,-1,24,26,28,-1,-1,-1,-1,-1,-1,-1,-1,-1],"split_conditions":[-2.8605258E-1,-5.3155675E0,4.974164E1,-1.7359866E2,-9.2605774E1,9.816442E-1,1.0628054E2,-1.0773749E-2,-7.3839566E-3,-4.1673875E0,-2.6619873E0,-2.3873379E1,1.9778908E1,7.6268073E-3,1.3149831E-2,-5.0550457E-3,-3.5772193E-3,-4.824007E-1,-5.7309494E1,-1.3999208E0,2.3688017E-3,3.7621234E-3,5.2984147E-3,-2.527032E-3,-1.4970162E-3,-1.0546088E-3,-2.690842E-4,3.1504626E-4,1.1455623E-3],"split_indices":[58,59,54,54,54,54,54,0,0,59,59,54,54,0,0,0,0,58,54,59,0,0,0,0,0,0,0,0,0],"split_type":[0,0,0,0,0,0,0,0,0,0,0,0,0,0,0,0,0,0,0,0,0,0,0,0,0,0,0,0,0],"sum_hessian":[3.29E2,1.64E2,1.65E2,5.3E1,1.11E2,1.16E2,4.9E1,2.3E1,3E1,5.3E1,5.8E1,5.9E1,5.7E1,3.6E1,1.3E1,3.4E1,1.9E1,3.5E1,2.3E1,2.5E1,3.4E1,1.9E1,3.8E1,2.5E1,1E1,1.3E1,1E1,1.2E1,1.3E1],"tree_param":{"num_deleted":"0","num_feature":"64","num_nodes":"29","size_leaf_vector":"1"}},{"base_weights":[-8.4383093E-4,-1.6994932E-1,1.5043707E-1,-2.807369E-1,-1.026954E-1,8.0705814E-2,2.6905513E-1,-9.523941E-3,-6.43826E-3,-1.4662088E-1,-5.8930475E-2,3.9338674E-2,1.280283E-1,2.2880569E-1,1.3265811E-2,-4.879174E-3,-3.528792E-3,-7.220373E-2,-2.6111763E-2,1.6397638E-2,6.2237266E-2,2.9361893E-3,4.36582E-3,5.6725694E-3,7.7328747E-3,-2.3925684E-3,-1.5368669E-3,-2.6508997E-4,-8.3061727E-4,1.2799773E-4,8.215399E-4,1.1721766E-3,2.0100097E-3],"categories":[],"categories_nodes":[],"categories_segments":[],"categories_sizes":[],"default_left":[0,0,0,0,0,0,0,0,0,0,0,0,0,0,0,0,0,0,0,0,0,0,0,0,0,0,0,0,0,0,0,0,0],"id":7,"left_children":[1,3,5,7,9,11,13,-1,-1,15,17,19,21,23,-1,-1,-1,25,27,29,31,-1,-1,-1,-1,-1,-1,-1,-1,-1,-1,-1,-1],"loss_changes":[8.733823E0,1.1664882E0,1.464447E0,6.445408E-2,1.8610036E-1,2.1947134E-1,3.3991814E-1,0E0,0E0,3.579855E-4,2.0912081E-2,3.1975396E-2,1.0981202E-2,6.152153E-3,0E0,0E0,0E0,9.870976E-4,1.7455034E-4,4.2848242E-3,3.0100346E-4,0E0,0E0,0E0,0E0,0E0,0E0,0E0,0E0,0E0,0E0,0E0,0E0],"parents":[2147483647,0,0,1,1,2,2,3,3,4,4,5,5,6,6,9,9,10,10,11,11,12,12,13,13,17,17,18,18,19,19,20,20],"right_children":[2,4,6,8,10,12,14,-1,-1,16,18,20,22,24,-1,-1,-1,26,28,30,32,-1,-1,-1,-1,-1,-1,-1,-1,-1,-1,-1,-1],"split_conditions":[-1.9748108E0,-5.0395947E0,3.2221764E1,-6.1510487E0,-3.5117369E0,-1.1548269E1,4.0033084E2,-9.523941E-3,-6.43826E-3,-4.199592E0,-4.213172E-1,-3.0774014E1,7.2818723E0,5.595843E1,1.3265811E-2,-4.879174E-3,-3.528792E-3,-2.918202E0,1.359191E1,-2.5142106E-1,-2.3873379E1,2.9361893E-3,4.36582E-3,5.6725694E-3,7.7328747E-3,-2.3925684E-3,-1.5368669E-3,-2.6508997E-4,-8.3061727E-4,1.2799773E-4,8.215399E-4,1.1721766E-3,2.0100097E-3],"split_indices":[59,59,54,59,59,54,12,0,0,59,58,54,54,54,0,0,0,59,34,58,54,0,0,0,0,0,0,0,0,0,0,0,0],"split_type":[0,0,0,0,0,0,0,0,0,0,0,0,0,0,0,0,0,0,0,0,0,0,0,0,0,0,0,0,0,0,0,0,0],"sum_hessian":[3.39E2,1.6E2,1.79E2,5.9E1,1.01E2,1.14E2,6.5E1,3.5E1,2.4E1,4.9E1,5.2E1,6.2E1,5.2E1,5.5E1,1E1,2.8E1,2.1E1,3.6E1,1.6E1,3.2E1,3E1,2.2E1,3E1,2.7E1,2.8E1,2.4E1,1.2E1,2E0,1.4E1,1.6E1,1.6E1,7E0,2.3E1],"tree_param":{"num_deleted":"0","num_feature":"64","num_nodes":"33","size_leaf_vector":"1"}},{"base_weights":[3.6231836E-3,-1.5968525E-1,1.6034432E-1,-2.661873E-1,-9.388152E-2,1.0102725E-1,3.085842E-1,-9.95807E-3,-6.642328E-3,-1.4007565E-1,-5.061455E-2,5.3800087E-2,1.5509747E-1,7.4255606E-3,1.3578744E-2,-4.5004273E-3,-3.0660592E-3,-6.65254E-2,-2.0581048E-2,2.615181E-2,2.2247673E-3,3.2984503E-3,5.0316034E-3,-2.278871E-3,-1.4774397E-3,-7.429096E-4,-5.990387E-5,2.5736244E-4,1.0563501E-3],"categories":[],"categories_nodes":[],"categories_segments":[],"categories_sizes":[],"default_left":[0,0,0,0,0,0,0,0,0,0,0,0,0,0,0,0,0,0,0,0,0,0,0,0,0,0,0,0,0],"id":8,"left_children":[1,3,5,7,9,11,13,-1,-1,15,17,19,21,-1,-1,-1,-1,23,25,27,-1,-1,-1,-1,-1,-1,-1,-1,-1],"loss_changes":[8.737765E0,1.1417885E0,1.4943576E0,9.786606E-2,2.0175326E-1,3.1224906E-1,2.9831934E-1,0E0,0E0,4.976988E-4,2.521266E-2,3.6624447E-2,1.1039734E-2,0E0,0E0,0E0,0E0,1.4130771E-3,1.5885513E-3,4.60485E-3,0E0,0E0,0E0,0E0,0E0,0E0,0E0,0E0,0E0],"parents":[2147483647,0,0,1,1,2,2,3,3,4,4,5,5,6,6,9,9,10,10,11,11,12,12,17,17,18,18,19,19],"right_children":[2,4,6,8,10,12,14,-1,-1,16,18,20,22,-1,-1,-1,-1,24,26,28,-1,-1,-1,-1,-1,-1,-1,-1,-1],"split_conditions":[-2.7995276E-1,-4.8965497E0,5.16916E1,-1.105472E0,-9.0753815E1,9.816442E-1,1.392516E2,-9.95807E-3,-6.642328E-3,-4.004357E0,-2.6100368E0,-2.3873379E1,1.7100016E1,7.4255606E-3,1.3578744E-2,-4.5004273E-3,-3.0660592E-3,-2.961117E0,-3.1970575E-1,-2.3791318E-1,2.2247673E-3,3.2984503E-3,5.0316034E-3,-2.278871E-3,-1.4774397E-3,-7.429096E-4,-5.990387E-5,2.5736244E-4,1.0563501E-3],"split_indices":[58,59,54,58,54,54,54,0,0,59,59,54,54,0,0,0,0,59,58,58,0,0,0,0,0,0,0,0,0],"split_type":[0,0,0,0,0,0,0,0,0,0,0,0,0,0,0,0,0,0,0,0,0,0,0,0,0,0,0,0,0],"sum_hessian":[3.39E2,1.66E2,1.73E2,6.2E1,1.04E2,1.25E2,4.8E1,2.2E1,4E1,4.9E1,5.5E1,6.8E1,5.7E1,3.6E1,1.2E1,3.6E1,1.3E1,3.5E1,2E1,3E1,3.8E1,1.5E1,4.2E1,2E1,1.5E1,1.6E1,4E0,1.1E1,1.9E1],"tree_param":{"num_deleted":"0","num_feature":"64","num_nodes":"29","size_leaf_vector":"1"}},{"base_weights":[-1.0552083E-3,-1.5997756E-1,1.4552726E-1,-2.6904795E-1,-9.6936405E-2,9.397106E-2,3.0641693E-1,-9.595007E-3,-6.743271E-3,-4.212927E-3,-5.4467775E-2,3.9737403E-2,1.4147791E-1,7.1399123E-3,1.3208414E-2,-2.114283E-3,-2.980506E-2,1.5544915E-2,6.1828215E-2,3.1690754E-3,4.8262943E-3,-1.1175937E-3,-5.1505724E-4,1.1294714E-4,7.872118E-4,1.2580042E-3,2.0727627E-3],"categories":[],"categories_nodes":[],"categories_segments":[],"categories_sizes":[],"default_left":[0,0,0,0,0,0,0,0,0,0,0,0,0,0,0,0,0,0,0,0,0,0,0,0,0,0,0],"id":9,"left_children":[1,3,5,7,9,11,13,-1,-1,-1,15,17,19,-1,-1,-1,21,23,25,-1,-1,-1,-1,-1,-1,-1,-1],"loss_changes":[8.06945E0,1.1114817E0,1.4601803E0,4.9084663E-2,1.8883598E-1,3.4932196E-1,2.699232E-1,0E0,0E0,0E0,1.9667596E-2,3.4226038E-2,3.0501604E-2,0E0,0E0,0E0,1.5101451E-3,4.064412E-3,1.4656186E-3,0E0,0E0,0E0,0E0,0E0,0E0,0E0,0E0],"parents":[2147483647,0,0,1,1,2,2,3,3,4,4,5,5,6,6,10,10,11,11,12,12,16,16,17,17,18,18],"right_children":[2,4,6,8,10,12,14,-1,-1,-1,16,18,20,-1,-1,-1,22,24,26,-1,-1,-1,-1,-1,-1,-1,-1],"split_conditions":[-1.9748108E0,-5.130424E0,3.0653226E-1,-1.1192971E0,-3.6526284E0,-4.055289E-2,8.192421E-1,-9.595007E-3,-6.743271E-3,-4.212927E-3,-4.5246878E-1,-1.8127063E-1,1.0432978E-1,7.1399123E-3,1.3208414E-2,-2.114283E-3,-2.354433E0,-2.5142106E-1,-7.4110824E-1,3.1690754E-3,4.8262943E-3,-1.1175937E-3,-5.1505724E-4,1.1294714E-4,7.872118E-4,1.2580042E-3,2.0727627E-3],"split_indices":[59,59,58,58,59,58,58,0,0,0,58,58,58,0,0,0,59,58,59,0,0,0,0,0,0,0,0],"split_type":[0,0,0,0,0,0,0,0,0,0,0,0,0,0,0,0,0,0,0,0,0,0,0,0,0,0,0],"sum_hessian":[3.44E2,1.65E2,1.79E2,5.9E1,1.06E2,1.37E2,4.2E1,2.4E1,3.5E1,5.1E1,5.5E1,6.5E1,7.2E1,3E1,1.2E1,3.2E1,2.3E1,3.2E1,3.3E1,2.8E1,4.4E1,1.3E1,1E1,1.6E1,1.6E1,1.1E1,2.2E1],"tree_param":{"num_deleted":"0","num_feature":"64","num_nodes":"27","size_leaf_vector":"1"}},{"base_weights":[-5.579851E-3,-1.6149782E-1,1.4101277E-1,-2.7424464E-1,-1.0135413E-1,8.016628E-2,2.5502196E-1,-9.6361255E-3,-6.7757783E-3,-1.4286456E-1,-5.3880356E-2,3.5796057E-2,1.2296461E-1,6.085069E-3,1.1120409E-2,-4.76239E-3,-3.3410108E-3,-2.1762198E-3,-3.1470895E-2,1.081698E-2,5.1562656E-2,2.673197E-3,4.1041565E-3,-1.1547118E-3,-5.195718E-4,1.03542676E-4,5.8962393E-4,1.04363E-3,1.7654701E-3],"categories":[],"categories_nodes":[],"categories_segments":[],"categories_sizes":[],"default_left":[0,0,0,0,0,0,0,0,0,0,0,0,0,0,0,0,0,0,0,0,0,0,0,0,0,0,0,0,0],"id":10,"left_children":[1,3,5,7,9,11,13,-1,-1,15,17,19,21,-1,-1,-1,-1,-1,23,25,27,-1,-1,-1,-1,-1,-1,-1,-1],"loss_changes":[8.123074E0,1.1343341E0,1.2463365E0,4.745531E-2,2.1581173E-1,2.2487342E-1,2.912364E-1,0E0,0E0,8.89945E-3,2.0343348E-2,2.3433402E-2,1.4050901E-2,0E0,0E0,0E0,0E0,0E0,1.9020755E-3,1.5588806E-3,2.0902306E-3,0E0,0E0,0E0,0E0,0E0,0E0,0E0,0E0],"parents":[2147483647,0,0,1,1,2,2,3,3,4,4,5,5,6,6,9,9,10,10,11,11,12,12,18,18,19,19,20,20],"right_children":[2,4,6,8,10,12,14,-1,-1,16,18,20,22,-1,-1,-1,-1,-1,24,26,28,-1,-1,-1,-1,-1,-1,-1,-1],"split_conditions":[-1.9748108E0,-5.4128575E0,3.6843143E1,-1.7565353E2,-3.5117369E0,-1.0257555E1,9.650644E1,-9.6361255E-3,-6.7757783E-3,-1.153217E2,-2.8246388E0,-3.5518986E1,7.2818723E0,6.085069E-3,1.1120409E-2,-4.76239E-3,-3.3410108E-3,-2.1762198E-3,-3.873618E-1,-4.256199E1,-2.3873379E1,2.673197E-3,4.1041565E-3,-1.1547118E-3,-5.195718E-4,1.03542676E-4,5.8962393E-4,1.04363E-3,1.7654701E-3],"split_indices":[59,59,54,54,59,54,54,0,0,54,59,54,54,0,0,0,0,0,58,54,54,0,0,0,0,0,0,0,0],"split_type":[0,0,0,0,0,0,0,0,0,0,0,0,0,0,0,0,0,0,0,0,0,0,0,0,0,0,0,0,0],"sum_hessian":[3.53E2,1.71E2,1.82E2,5.8E1,1.13E2,1.2E2,6.2E1,2.6E1,3.2E1,5.9E1,5.4E1,6E1,6E1,4.5E1,1.7E1,3.6E1,2.3E1,2.8E1,2.6E1,2.4E1,3.6E1,2E1,4E1,1.6E1,1E1,1.4E1,1E1,1.3E1,2.3E1],"tree_param":{"num_deleted":"0","num_feature":"64","num_nodes":"29","size_leaf_vector":"1"}},{"base_weights":[-5.9597236E-3,-1.4516081E-1,1.3243224E-1,-2.4948108E-1,-8.884558E-2,7.505449E-2,2.4306142E-1,-8.42688E-3,-5.7080076E-3,-3.891714E-3,-5.3071547E-2,3.5393484E-2,1.16004564E-1,5.9061656E-3,1.1594852E-2,-2.0745618E-3,-2.96502E-2,8.4633455E-3,4.959904E-2,2.499653E-3,3.8577232E-3,-1.068666E-3,-5.3505966E-4,-1.5393303E-5,4.1850805E-4,1.061842E-3,1.749474E-3],"categories":[],"categories_nodes":[],"categories_segments":[],"categories_sizes":[],"default_left":[0,0,0,0,0,0,0,0,0,0,0,0,0,0,0,0,0,0,0,0,0,0,0,0,0,0,0],"id":11,"left_children":[1,3,5,7,9,11,13,-1,-1,-1,15,17,19,-1,-1,-1,21,23,25,-1,-1,-1,-1,-1,-1,-1,-1],"loss_changes":[6.268558E0,9.262974E-1,1.0140455E0,4.0409327E-2,1.4850533E-1,1.7242706E-1,2.743969E-1,0E0,0E0,0E0,1.9835874E-2,2.1378577E-2,9.026706E-3,0E0,0E0,0E0,1.0862313E-3,1.0527559E-3,2.129048E-3,0E0,0E0,0E0,0E0,0E0,0E0,0E0,0E0],"parents":[2147483647,0,0,1,1,2,2,3,3,4,4,5,5,6,6,10,10,11,11,12,12,16,16,17,17,18,18],"right_children":[2,4,6,8,10,12,14,-1,-1,-1,16,18,20,-1,-1,-1,22,24,26,-1,-1,-1,-1,-1,-1,-1,-1],"split_conditions":[-3.2794777E-1,-5.0395947E0,1.9493267E-1,-6.240159E0,-3.5117369E0,-1.1548269E1,5.735176E-1,-8.42688E-3,-5.7080076E-3,-3.891714E-3,-2.7959504E0,-3.6323902E1,2.419109E0,5.9061656E-3,1.1594852E-2,-2.0745618E-3,-2.354433E0,-2.698026E-1,-1.3530435E-1,2.499653E-3,3.8577232E-3,-1.068666E-3,-5.3505966E-4,-1.5393303E-5,4.1850805E-4,1.061842E-3,1.749474E-3],"split_indices":[58,59,58,59,59,54,58,0,0,0,59,54,54,0,0,0,59,58,58,0,0,0,0,0,0,0,0],"split_type":[0,0,0,0,0,0,0,0,0,0,0,0,0,0,0,0,0,0,0,0,0,0,0,0,0,0,0],"sum_hessian":[3.23E2,1.61E2,1.62E2,5.5E1,1.06E2,1.08E2,5.4E1,3.3E1,2.2E1,4.8E1,5.8E1,5.6E1,5.2E1,4.3E1,1.1E1,3.3E1,2.5E1,2E1,3.6E1,1.7E1,3.5E1,1.5E1,1E1,8E0,1.2E1,1.6E1,2E1],"tree_param":{"num_deleted":"0","num_feature":"64","num_nodes":"27","size_leaf_vector":"1"}},{"base_weights":[3.017072E-4,-1.5055157E-1,1.3659842E-1,-2.5761878E-1,-9.420784E-2,9.327977E-2,2.901596E-1,-9.377977E-3,-6.434943E-3,-1.3263547E-1,-4.98195E-2,4.288472E-2,1.406871E-1,6.692731E-3,1.2334479E-2,-4.4197487E-3,-3.0652368E-3,-2.0274632E-3,-2.8274808E-2,1.7492304E-2,6.4163394E-2,3.2521705E-3,4.6913405E-3,-1.0794778E-3,-4.956696E-4,1.4088258E-4,7.958812E-4,1.3179842E-3,2.1193489E-3],"categories":[],"categories_nodes":[],"categories_segments":[],"categories_sizes":[],"default_left":[0,0,0,0,0,0,0,0,0,0,0,0,0,0,0,0,0,0,0,0,0,0,0,0,0,0,0,0,0],"id":12,"left_children":[1,3,5,7,9,11,13,-1,-1,15,17,19,21,-1,-1,-1,-1,-1,23,25,27,-1,-1,-1,-1,-1,-1,-1,-1],"loss_changes":[6.8961E0,9.312608E-1,1.1396146E0,4.8034668E-2,1.7322004E-1,3.2532203E-1,1.9990945E-1,0E0,0E0,7.083535E-3,1.730068E-2,3.6043093E-2,1.5721798E-2,0E0,0E0,0E0,0E0,0E0,1.56934E-3,3.6897557E-3,1.1535138E-3,0E0,0E0,0E0,0E0,0E0,0E0,0E0,0E0],"parents":[2147483647,0,0,1,1,2,2,3,3,4,4,5,5,6,6,9,9,10,10,11,11,12,12,18,18,19,19,20,20],"right_children":[2,4,6,8,10,12,14,-1,-1,16,18,20,22,-1,-1,-1,-1,-1,24,26,28,-1,-1,-1,-1,-1,-1,-1,-1],"split_conditions":[-1.9748108E0,-1.3751672E2,3.3993173E-1,-7.2391024E0,-3.5117369E0,9.816442E-1,6.293096E-1,-9.377977E-3,-6.434943E-3,-4.2786384E0,-7.189083E1,-1.7462407E-1,1.2558757E-1,6.692731E-3,1.2334479E-2,-4.4197487E-3,-3.0652368E-3,-2.0274632E-3,-3.873618E-1,-2.5142106E-1,-1.7719929E1,3.2521705E-3,4.6913405E-3,-1.0794778E-3,-4.956696E-4,1.4088258E-4,7.958812E-4,1.3179842E-3,2.1193489E-3],"split_indices":[59,54,58,59,59,54,58,0,0,59,54,58,58,0,0,0,0,0,58,58,54,0,0,0,0,0,0,0,0],"split_type":[0,0,0,0,0,0,0,0,0,0,0,0,0,0,0,0,0,0,0,0,0,0,0,0,0,0,0,0,0],"sum_hessian":[3.33E2,1.58E2,1.75E2,5.3E1,1.05E2,1.38E2,3.7E1,2E1,3.3E1,5.5E1,5E1,6.8E1,7E1,2.6E1,1.1E1,3.4E1,2.1E1,2.6E1,2.4E1,3.2E1,3.6E1,2.6E1,4.4E1,1.3E1,1.1E1,1.4E1,1.8E1,1.1E1,2.5E1],"tree_param":{"num_deleted":"0","num_feature":"64","num_nodes":"29","size_leaf_vector":"1"}},{"base_weights":[-3.8653596E-3,-1.4799516E-1,1.253982E-1,-2.520741E-1,-9.466328E-2,7.639436E-2,2.5530955E-1,-8.739492E-3,-6.1883978E-3,-4.092057E-3,-5.6776293E-2,3.6009036E-2,1.1855224E-1,6.273814E-3,1.1440397E-2,-2.2029285E-3,-3.370715E-2,1.4698678E-2,5.3770985E-2,2.6695083E-3,4.0665953E-3,-1.1615386E-3,-5.1125314E-4,1.361631E-4,6.972721E-4,1.1142456E-3,1.777837E-3],"categories":[],"categories_nodes":[],"categories_segments":[],"categories_sizes":[],"default_left":[0,0,0,0,0,0,0,0,0,0,0,0,0,0,0,0,0,0,0,0,0,0,0,0,0,0,0],"id":13,"left_children":[1,3,5,7,9,11,13,-1,-1,-1,15,17,19,-1,-1,-1,21,23,25,-1,-1,-1,-1,-1,-1,-1,-1],"loss_changes":[6.155507E0,8.3838797E-1,1.0855796E0,2.1695614E-2,1.570648E-1,2.1314532E-1,1.7903686E-1,0E0,0E0,0E0,1.9006565E-2,2.4487667E-2,1.6793191E-2,0E0,0E0,0E0,1.3960954E-3,2.6684813E-3,6.637946E-4,0E0,0E0,0E0,0E0,0E0,0E0,0E0,0E0],"parents":[2147483647,0,0,1,1,2,2,3,3,4,4,5,5,6,6,10,10,11,11,12,12,16,16,17,17,18,18],"right_children":[2,4,6,8,10,12,14,-1,-1,-1,16,18,20,-1,-1,-1,22,24,26,-1,-1,-1,-1,-1,-1,-1,-1],"split_conditions":[-3.2794777E-1,-5.4372215E0,4.4179195E1,-1.7565353E2,-3.9082859E0,-9.225562E0,1.392516E2,-8.739492E-3,-6.1883978E-3,-4.092057E-3,-4.7601584E-1,-3.0774014E1,1.2428277E1,6.273814E-3,1.1440397E-2,-2.2029285E-3,-6.2975235E1,-4.0934807E1,-1.9224936E1,2.6695083E-3,4.0665953E-3,-1.1615386E-3,-5.1125314E-4,1.361631E-4,6.972721E-4,1.1142456E-3,1.777837E-3],"split_indices":[58,59,54,54,59,54,54,0,0,0,58,54,54,0,0,0,54,54,54,0,0,0,0,0,0,0,0],"split_type":[0,0,0,0,0,0,0,0,0,0,0,0,0,0,0,0,0,0,0,0,0,0,0,0,0,0,0],"sum_hessian":[3.28E2,1.55E2,1.73E2,5.1E1,1.04E2,1.27E2,4.6E1,2.4E1,2.7E1,4.8E1,5.6E1,6.6E1,6.1E1,3.6E1,1E1,3.1E1,2.5E1,3.1E1,3.5E1,2.5E1,3.6E1,1.8E1,7E0,1.5E1,1.6E1,1.1E1,2.4E1],"tree_param":{"num_deleted":"0","num_feature":"64","num_nodes":"27","size_leaf_vector":"1"}},{"base_weights":[-4.5359754E-3,-1.4166214E-1,1.2684746E-1,-2.4915455E-1,-9.1152936E-2,6.784433E-2,2.3211643E-1,-9.0658525E-3,-6.332176E-3,-1.2865068E-1,-4.653129E-2,3.2105412E-2,1.08368844E-1,5.765016E-3,1.1482141E-2,-4.303523E-3,-2.9479545E-3,-1.7884541E-3,-2.5627978E-2,9.464078E-3,4.6177063E-2,2.2691884E-3,3.555575E-3,-9.7483443E-4,-5.0410547E-4,9.754864E-5,5.2825303E-4,9.914403E-4,1.6383919E-3],"categories":[],"categories_nodes":[],"categories_segments":[],"categories_sizes":[],"default_left":[0,0,0,0,0,0,0,0,0,0,0,0,0,0,0,0,0,0,0,0,0,0,0,0,0,0,0,0,0],"id":14,"left_children":[1,3,5,7,9,11,13,-1,-1,15,17,19,21,-1,-1,-1,-1,-1,23,25,27,-1,-1,-1,-1,-1,-1,-1,-1],"loss_changes":[5.8623853E0,8.3710027E-1,1.0134039E0,2.4856567E-2,1.7720419E-1,1.525312E-1,2.6795983E-1,0E0,0E0,9.707332E-3,1.244311E-2,1.833675E-2,5.9193373E-3,0E0,0E0,0E0,0E0,0E0,6.899452E-4,1.1557273E-3,1.8435717E-3,0E0,0E0,0E0,0E0,0E0,0E0,0E0,0E0],"parents":[2147483647,0,0,1,1,2,2,3,3,4,4,5,5,6,6,9,9,10,10,11,11,12,12,18,18,19,19,20,20],"right_children":[2,4,6,8,10,12,14,-1,-1,16,18,20,22,-1,-1,-1,-1,-1,24,26,28,-1,-1,-1,-1,-1,-1,-1,-1],"split_conditions":[-1.9748108E0,-5.499941E0,3.5594624E1,-1.8396541E2,-9.2605774E1,-1.1548269E1,1.392516E2,-9.0658525E-3,-6.332176E-3,-4.420992E0,-2.7414508E0,-3.528248E1,2.419109E0,5.765016E-3,1.1482141E-2,-4.303523E-3,-2.9479545E-3,-1.7884541E-3,-2.354433E0,-4.0934807E1,-2.2981537E1,2.2691884E-3,3.555575E-3,-9.7483443E-4,-5.0410547E-4,9.754864E-5,5.2825303E-4,9.914403E-4,1.6383919E-3],"split_indices":[59,59,54,54,54,54,54,0,0,59,59,54,54,0,0,0,0,0,59,54,54,0,0,0,0,0,0,0,0],"split_type":[0,0,0,0,0,0,0,0,0,0,0,0,0,0,0,0,0,0,0,0,0,0,0,0,0,0,0,0,0],"sum_hessian":[3.23E2,1.58E2,1.65E2,4.9E1,1.09E2,1.07E2,5.8E1,1.7E1,3.2E1,5.8E1,5.1E1,5.8E1,4.9E1,4.8E1,1E1,3.6E1,2.2E1,3E1,2.1E1,2.3E1,3.5E1,1.4E1,3.5E1,1E1,1.1E1,1.4E1,9E0,1.6E1,1.9E1],"tree_param":{"num_deleted":"0","num_feature":"64","num_nodes":"29","size_leaf_vector":"1"}},{"base_weights":[4.4544207E-4,-1.2975943E-1,1.2987302E-1,-2.1174237E-1,-6.9566816E-2,8.991622E-2,2.7778083E-1,-7.5398628E-3,-4.7562243E-3,-1.0014312E-1,-3.5355467E-2,4.0244427E-2,1.319018E-1,6.6139833E-3,1.1769625E-2,-3.4563164E-3,-2.328583E-3,-1.4233108E-3,-1.5781071E-2,1.8754466E-2,1.7695557E-3,2.9594728E-3,4.4101924E-3,-5.841729E-4,-1.10306566E-4,3.05814E-4,8.0882746E-4],"categories":[],"categories_nodes":[],"categories_segments":[],"categories_sizes":[],"default_left":[0,0,0,0,0,0,0,0,0,0,0,0,0,0,0,0,0,0,0,0,0,0,0,0,0,0,0],"id":15,"left_children":[1,3,5,7,9,11,13,-1,-1,15,17,19,21,-1,-1,-1,-1,-1,23,25,-1,-1,-1,-1,-1,-1,-1],"loss_changes":[5.6521955E0,8.074169E-1,9.640765E-1,1.00029945E-1,9.8474026E-2,2.735039E-1,1.2728977E-1,0E0,0E0,6.644845E-3,1.0506619E-2,2.4125576E-2,1.8861413E-2,0E0,0E0,0E0,0E0,0E0,8.166372E-4,1.8620826E-3,0E0,0E0,0E0,0E0,0E0,0E0,0E0],"parents":[2147483647,0,0,1,1,2,2,3,3,4,4,5,5,6,6,9,9,10,10,11,11,12,12,18,18,19,19],"right_children":[2,4,6,8,10,12,14,-1,-1,16,18,20,22,-1,-1,-1,-1,-1,24,26,-1,-1,-1,-1,-1,-1,-1],"split_conditions":[-2.8605258E-1,-4.7574244E0,6.4690865E1,-1.5263145E2,-3.2348063E0,-1.6201465E0,1.5443462E2,-7.5398628E-3,-4.7562243E-3,-3.9082859E0,-4.0949652E-1,-2.7739996E1,2.2784065E1,6.6139833E-3,1.1769625E-2,-3.4563164E-3,-2.328583E-3,-1.4233108E-3,-5.3718678E1,-1.3852379E0,1.7695557E-3,2.9594728E-3,4.4101924E-3,-5.841729E-4,-1.10306566E-4,3.05814E-4,8.0882746E-4],"split_indices":[58,59,54,54,59,54,54,0,0,59,58,54,54,0,0,0,0,0,54,59,0,0,0,0,0,0,0],"split_type":[0,0,0,0,0,0,0,0,0,0,0,0,0,0,0,0,0,0,0,0,0,0,0,0,0,0,0],"sum_hessian":[3.33E2,1.66E2,1.67E2,6.9E1,9.7E1,1.33E2,3.4E1,3.7E1,3.2E1,5E1,4.7E1,6.2E1,7.1E1,2.5E1,9E0,2.7E1,2.3E1,2.8E1,1.9E1,3E1,3.2E1,2.5E1,4.6E1,1.4E1,5E0,1.6E1,1.4E1],"tree_param":{"num_deleted":"0","num_feature":"64","num_nodes":"27","size_leaf_vector":"1"}},{"base_weights":[4.143687E-3,-1.217836E-1,1.3163155E-1,-2.0081204E-1,-6.088438E-2,9.220003E-2,2.614659E-1,-7.3275887E-3,-4.43354E-3,-8.789061E-2,-2.7810903E-2,4.570147E-2,1.3140814E-1,6.273673E-3,1.0676942E-2,-2.9519082E-3,-1.9433241E-3,-3.9735783E-2,-8.810633E-3,2.3016917E-2,1.8948126E-3,2.9579452E-3,4.2915177E-3,-1.2447239E-3,-5.6065E-4,-4.2941247E-4,-4.680421E-5,3.6203716E-4,9.6062507E-4],"categories":[],"categories_nodes":[],"categories_segments":[],"categories_sizes":[],"default_left":[0,0,0,0,0,0,0,0,0,0,0,0,0,0,0,0,0,0,0,0,0,0,0,0,0,0,0,0,0],"id":16,"left_children":[1,3,5,7,9,11,13,-1,-1,15,17,19,21,-1,-1,-1,-1,23,25,27,-1,-1,-1,-1,-1,-1,-1,-1,-1],"loss_changes":[5.111629E0,7.563343E-1,7.809868E-1,1.1608982E-1,7.94189E-2,2.1740174E-1,8.962178E-2,0E0,0E0,4.5416057E-3,9.367965E-3,2.1305509E-2,8.362174E-3,0E0,0E0,0E0,0E0,3.7316233E-5,6.9938763E-4,2.2177761E-3,0E0,0E0,0E0,0E0,0E0,0E0,0E0,0E0,0E0],"parents":[2147483647,0,0,1,1,2,2,3,3,4,4,5,5,6,6,9,9,10,10,11,11,12,12,17,17,18,18,19,19],"right_children":[2,4,6,8,10,12,14,-1,-1,16,18,20,22,-1,-1,-1,-1,24,26,28,-1,-1,-1,-1,-1,-1,-1,-1,-1],"split_conditions":[-2.7021423E-1,-4.6434E0,3.663778E-1,-5.9276047E0,-3.1451893E0,1.2989332E-2,8.192421E-1,-7.3275887E-3,-4.43354E-3,-3.5117369E0,-2.354433E0,-1.3154303E-1,1.389961E-1,6.273673E-3,1.0676942E-2,-2.9519082E-3,-1.9433241E-3,-4.0492103E-1,-1.9748108E0,-2.1272893E-1,1.8948126E-3,2.9579452E-3,4.2915177E-3,-1.2447239E-3,-5.6065E-4,-4.2941247E-4,-4.680421E-5,3.6203716E-4,9.6062507E-4],"split_indices":[58,59,58,59,59,58,58,0,0,59,59,58,58,0,0,0,0,58,59,58,0,0,0,0,0,0,0,0,0],"split_type":[0,0,0,0,0,0,0,0,0,0,0,0,0,0,0,0,0,0,0,0,0,0,0,0,0,0,0,0,0],"sum_hessian":[3.16E2,1.59E2,1.57E2,6.8E1,9.1E1,1.22E2,3.5E1,3.5E1,3.3E1,4.9E1,4.2E1,5.7E1,6.5E1,2.5E1,1E1,3.1E1,1.8E1,2.5E1,1.7E1,2.6E1,3.1E1,2E1,4.5E1,2.2E1,3E0,9E0,8E0,1.3E1,1.3E1],"tree_param":{"num_deleted":"0","num_feature":"64","num_nodes":"29","size_leaf_vector":"1"}},{"base_weights":[-7.2949537E-4,-1.255855E-1,1.2570055E-1,-2.1914604E-1,-7.465513E-2,8.6138874E-2,2.672749E-1,-8.439055E-3,-5.7157963E-3,-1.0797566E-1,-4.0296488E-2,4.062477E-2,1.2175199E-1,6.358509E-3,1.1175451E-2,-3.6205642E-3,-2.4587929E-3,-5.436829E-2,-1.868149E-2,1.667144E-2,5.614877E-2,2.829929E-3,4.088094E-3,-1.7804743E-3,-1.025249E-3,-7.603772E-4,-2.1617267E-4,1.2436285E-4,6.7650166E-4,1.254345E-3,1.8772142E-3],"categories":[],"categories_nodes":[],"categories_segments":[],"categories_sizes":[],"default_left":[0,0,0,0,0,0,0,0,0,0,0,0,0,0,0,0,0,0,0,0,0,0,0,0,0,0,0,0,0,0,0],"id":17,"left_children":[1,3,5,7,9,11,13,-1,-1,15,17,19,21,-1,-1,-1,-1,23,25,27,29,-1,-1,-1,-1,-1,-1,-1,-1,-1,-1],"loss_changes":[5.057691E0,7.4849725E-1,8.6403847E-1,3.5657883E-2,1.1636156E-1,1.9862199E-1,1.04379416E-1,0E0,0E0,5.7213306E-3,1.5266761E-2,2.01466E-2,1.252079E-2,0E0,0E0,0E0,0E0,8.0475956E-4,1.5551504E-3,1.6698064E-3,1.0855496E-5,0E0,0E0,0E0,0E0,0E0,0E0,0E0,0E0,0E0,0E0],"parents":[2147483647,0,0,1,1,2,2,3,3,4,4,5,5,6,6,9,9,10,10,11,11,12,12,17,17,18,18,19,19,20,20],"right_children":[2,4,6,8,10,12,14,-1,-1,16,18,20,22,-1,-1,-1,-1,24,26,28,30,-1,-1,-1,-1,-1,-1,-1,-1,-1,-1],"split_conditions":[-2.7995276E-1,-8.3876485E-1,6.4690865E1,-1.8587067E2,-5.5940807E-1,9.816442E-1,1.5443462E2,-8.439055E-3,-5.7157963E-3,-4.1673875E0,-2.6619873E0,-2.7739996E1,2.3583624E1,6.358509E-3,1.1175451E-2,-3.6205642E-3,-2.4587929E-3,-4.7008348E-1,-3.6640814E-1,-4.0934807E1,-1.6980888E1,2.829929E-3,4.088094E-3,-1.7804743E-3,-1.025249E-3,-7.603772E-4,-2.1617267E-4,1.2436285E-4,6.7650166E-4,1.254345E-3,1.8772142E-3],"split_indices":[58,58,54,54,58,54,54,0,0,59,59,54,54,0,0,0,0,58,58,54,54,0,0,0,0,0,0,0,0,0,0],"split_type":[0,0,0,0,0,0,0,0,0,0,0,0,0,0,0,0,0,0,0,0,0,0,0,0,0,0,0,0,0,0,0],"sum_hessian":[3.18E2,1.6E2,1.58E2,5.5E1,1.05E2,1.25E2,3.3E1,1.4E1,4.1E1,5.2E1,5.3E1,5.6E1,6.9E1,2.4E1,9E0,3.2E1,2E1,3.1E1,2.2E1,2.3E1,3.3E1,2.7E1,4.2E1,2.3E1,8E0,1.3E1,9E0,8E0,1.5E1,1.3E1,2E1],"tree_param":{"num_deleted":"0","num_feature":"64","num_nodes":"31","size_leaf_vector":"1"}},{"base_weights":[5.0730733E-3,-1.15580246E-1,1.2155968E-1,-1.8904874E-1,-6.0151313E-2,8.503089E-2,2.4989495E-1,-7.2304173E-3,-4.54827E-3,-8.664043E-2,-2.679087E-2,4.380763E-2,1.219861E-1,5.7769893E-3,1.0228975E-2,-3.0082755E-3,-2.0242634E-3,-3.6518965E-2,-9.951239E-3,2.1003505E-2,6.0459863E-2,2.8894304E-3,4.0429193E-3,-1.1856566E-3,-6.352035E-4,-4.1796194E-4,-4.642233E-5,2.666604E-4,8.2166237E-4,1.3351853E-3,2.0244706E-3],"categories":[],"categories_nodes":[],"categories_segments":[],"categories_sizes":[],"default_left":[0,0,0,0,0,0,0,0,0,0,0,0,0,0,0,0,0,0,0,0,0,0,0,0,0,0,0,0,0,0,0],"id":18,"left_children":[1,3,5,7,9,11,13,-1,-1,15,17,19,21,-1,-1,-1,-1,23,25,27,29,-1,-1,-1,-1,-1,-1,-1,-1,-1,-1],"loss_changes":[4.840363E0,6.7538404E-1,7.958269E-1,9.662175E-2,8.399284E-2,2.0412314E-1,1.2065077E-1,0E0,0E0,6.0442686E-3,6.968461E-3,2.3994654E-2,8.10802E-3,0E0,0E0,0E0,0E0,2.9531494E-4,5.829957E-4,2.0440137E-3,6.7566335E-4,0E0,0E0,0E0,0E0,0E0,0E0,0E0,0E0,0E0,0E0],"parents":[2147483647,0,0,1,1,2,2,3,3,4,4,5,5,6,6,9,9,10,10,11,11,12,12,17,17,18,18,19,19,20,20],"right_children":[2,4,6,8,10,12,14,-1,-1,16,18,20,22,-1,-1,-1,-1,24,26,28,30,-1,-1,-1,-1,-1,-1,-1,-1,-1,-1],"split_conditions":[-1.739095E0,-4.6525407E0,2.2832398E0,-6.485491E0,-3.146439E0,1.8748096E-1,5.0259185E0,-7.2304173E-3,-4.54827E-3,-3.8384063E0,-2.354433E0,-8.10761E-1,9.379231E-1,5.7769893E-3,1.0228975E-2,-3.0082755E-3,-2.0242634E-3,-2.542852E0,-1.9748108E0,-1.3999208E0,-5.2506614E-1,2.8894304E-3,4.0429193E-3,-1.1856566E-3,-6.352035E-4,-4.1796194E-4,-4.642233E-5,2.666604E-4,8.2166237E-4,1.3351853E-3,2.0244706E-3],"split_indices":[59,59,59,59,59,59,59,0,0,59,59,59,59,0,0,0,0,59,59,59,59,0,0,0,0,0,0,0,0,0,0],"split_type":[0,0,0,0,0,0,0,0,0,0,0,0,0,0,0,0,0,0,0,0,0,0,0,0,0,0,0,0,0,0,0],"sum_hessian":[3.42E2,1.68E2,1.74E2,7.1E1,9.7E1,1.37E2,3.7E1,2.7E1,4.4E1,5.3E1,4.4E1,6.6E1,7.1E1,2.5E1,1.2E1,2.8E1,2.5E1,2.7E1,1.7E1,2.9E1,3.7E1,2.7E1,4.4E1,2.1E1,6E0,1.1E1,6E0,1.1E1,1.8E1,1.4E1,2.3E1],"tree_param":{"num_deleted":"0","num_feature":"64","num_nodes":"31","size_leaf_vector":"1"}},{"base_weights":[-1.5628128E-3,-1.1705278E-1,1.0916028E-1,-1.9758452E-1,-6.99516E-2,7.503344E-2,2.4123873E-1,-7.4487906E-3,-4.9233604E-3,-9.846449E-2,-3.692664E-2,3.4618273E-2,1.1243885E-1,5.519923E-3,9.790878E-3,-3.2691138E-3,-2.158654E-3,-4.7569778E-2,-1.8294068E-2,1.3536433E-2,4.926235E-2,2.6177655E-3,3.79994E-3,-1.55881E-3,-9.725225E-4,-6.474301E-4,-2.6287467E-4,7.2864765E-5,5.750953E-4,9.204976E-4,1.5853829E-3],"categories":[],"categories_nodes":[],"categories_segments":[],"categories_sizes":[],"default_left":[0,0,0,0,0,0,0,0,0,0,0,0,0,0,0,0,0,0,0,0,0,0,0,0,0,0,0,0,0,0,0],"id":19,"left_children":[1,3,5,7,9,11,13,-1,-1,15,17,19,21,-1,-1,-1,-1,23,25,27,29,-1,-1,-1,-1,-1,-1,-1,-1,-1,-1],"loss_changes":[4.237735E0,5.9866166E-1,7.409344E-1,5.1585197E-2,9.3755424E-2,2.0122886E-1,9.4583035E-2,0E0,0E0,5.964339E-3,8.910827E-3,1.9946046E-2,1.1882901E-2,0E0,0E0,0E0,0E0,5.4344535E-5,4.0593604E-4,1.7712801E-3,6.642565E-4,0E0,0E0,0E0,0E0,0E0,0E0,0E0,0E0,0E0,0E0],"parents":[2147483647,0,0,1,1,2,2,3,3,4,4,5,5,6,6,9,9,10,10,11,11,12,12,17,17,18,18,19,19,20,20],"right_children":[2,4,6,8,10,12,14,-1,-1,16,18,20,22,-1,-1,-1,-1,24,26,28,30,-1,-1,-1,-1,-1,-1,-1,-1,-1,-1],"split_conditions":[-1.928688E0,-8.117466E-1,2.05411E0,-1.1593478E0,-3.35227E0,-2.6278282E-2,6.293096E-1,-7.4487906E-3,-4.9233604E-3,-4.004357E0,-2.6100368E0,-1.1323519E0,1.389961E-1,5.519923E-3,9.790878E-3,-3.2691138E-3,-2.158654E-3,-2.8734593E0,-3.639355E-1,-2.5849646E-1,-1.1956933E-1,2.6177655E-3,3.79994E-3,-1.55881E-3,-9.725225E-4,-6.474301E-4,-2.6287467E-4,7.2864765E-5,5.750953E-4,9.204976E-4,1.5853829E-3],"split_indices":[59,58,59,58,59,58,58,0,0,59,59,59,58,0,0,0,0,59,58,58,58,0,0,0,0,0,0,0,0,0,0],"split_type":[0,0,0,0,0,0,0,0,0,0,0,0,0,0,0,0,0,0,0,0,0,0,0,0,0,0,0,0,0,0,0],"sum_hessian":[3.29E2,1.61E2,1.68E2,5.8E1,1.03E2,1.35E2,3.3E1,2E1,3.8E1,5.4E1,4.9E1,6.6E1,6.9E1,2.2E1,1.1E1,3.6E1,1.8E1,3E1,1.9E1,2.8E1,3.8E1,2.8E1,4.1E1,2.1E1,9E0,1.3E1,6E0,1E1,1.8E1,8E0,3E1],"tree_param":{"num_deleted":"0","num_feature":"64","num_nodes":"31","size_leaf_vector":"1"}},{"base_weights":[-1.9454603E-3,-1.13091394E-1,1.1249872E-1,-2.1054377E-1,-7.402351E-2,7.392003E-2,2.2296658E-1,-8.027032E-3,-5.435877E-3,-1.0704972E-1,-3.6847644E-2,3.4550086E-2,1.0529648E-1,5.3367424E-3,1.0436087E-2,-3.617765E-3,-2.4693597E-3,-4.8517223E-2,-1.3724475E-2,1.4434971E-2,4.8159465E-2,2.413731E-3,3.5846783E-3,-1.644818E-3,-1.0143117E-3,-5.651899E-4,-1.647052E-4,1.4755769E-4,5.5554113E-4,9.940533E-4,1.5817443E-3],"categories":[],"categories_nodes":[],"categories_segments":[],"categories_sizes":[],"default_left":[0,0,0,0,0,0,0,0,0,0,0,0,0,0,0,0,0,0,0,0,0,0,0,0,0,0,0,0,0,0,0],"id":20,"left_children":[1,3,5,7,9,11,13,-1,-1,15,17,19,21,-1,-1,-1,-1,23,25,27,29,-1,-1,-1,-1,-1,-1,-1,-1,-1,-1],"loss_changes":[4.3680534E0,6.4452195E-1,7.013025E-1,2.4159193E-2,1.5021217E-1,1.5276307E-1,1.6895771E-1,0E0,0E0,1.0266066E-2,1.5715018E-2,1.5098281E-2,1.3211131E-2,0E0,0E0,0E0,0E0,1.5061125E-3,8.1094494E-4,8.698725E-4,2.4937093E-4,0E0,0E0,0E0,0E0,0E0,0E0,0E0,0E0,0E0,0E0],"parents":[2147483647,0,0,1,1,2,2,3,3,4,4,5,5,6,6,9,9,10,10,11,11,12,12,17,17,18,18,19,19,20,20],"right_children":[2,4,6,8,10,12,14,-1,-1,16,18,20,22,-1,-1,-1,-1,24,26,28,30,-1,-1,-1,-1,-1,-1,-1,-1,-1,-1],"split_conditions":[-2.7995276E-1,-5.499941E0,5.440826E1,-7.6386304E0,-9.2605774E1,-4.3504496E0,1.5443462E2,-8.027032E-3,-5.435877E-3,-4.420992E0,-2.542852E0,-3.0774014E1,1.9778908E1,5.3367424E-3,1.0436087E-2,-3.617765E-3,-2.4693597E-3,-2.918202E0,-5.7309494E1,-4.0934807E1,-1.7719929E1,2.413731E-3,3.5846783E-3,-1.644818E-3,-1.0143117E-3,-5.651899E-4,-1.647052E-4,1.4755769E-4,5.5554113E-4,9.940533E-4,1.5817443E-3],"split_indices":[58,59,54,59,54,54,54,0,0,59,59,54,54,0,0,0,0,59,54,54,54,0,0,0,0,0,0,0,0,0,0],"split_type":[0,0,0,0,0,0,0,0,0,0,0,0,0,0,0,0,0,0,0,0,0,0,0,0,0,0,0,0,0,0,0],"sum_hessian":[3.41E2,1.73E2,1.68E2,4.8E1,1.25E2,1.26E2,4.2E1,1.3E1,3.5E1,6.5E1,6E1,5.7E1,6.9E1,3.3E1,9E0,3.9E1,2.6E1,3.9E1,2.1E1,2.4E1,3.3E1,2.8E1,4.1E1,2.5E1,1.4E1,1.2E1,9E0,8E0,1.6E1,1E1,2.3E1],"tree_param":{"num_deleted":"0","num_feature":"64","num_nodes":"31","size_leaf_vector":"1"}},{"base_weights":[-1.1112778E-3,-1.1558495E-1,1.0160901E-1,-2.0341164E-1,-7.234401E-2,6.2460102E-2,1.899777E-1,-7.7800485E-3,-5.219987E-3,-1.0584202E-1,-4.0842082E-2,2.772274E-2,9.091285E-2,4.677192E-3,9.031227E-3,-3.4771236E-3,-2.398665E-3,-1.651551E-3,-2.274096E-2,1.1290164E-2,4.0982317E-2,2.0333591E-3,3.0564733E-3,-8.2853046E-4,-3.8445523E-4,6.625452E-5,5.1879435E-4,7.926885E-4,1.3390824E-3],"categories":[],"categories_nodes":[],"categories_segments":[],"categories_sizes":[],"default_left":[0,0,0,0,0,0,0,0,0,0,0,0,0,0,0,0,0,0,0,0,0,0,0,0,0,0,0,0,0],"id":21,"left_children":[1,3,5,7,9,11,13,-1,-1,15,17,19,21,-1,-1,-1,-1,-1,23,25,27,-1,-1,-1,-1,-1,-1,-1,-1],"loss_changes":[3.9085975E0,5.7934093E-1,5.9187174E-1,3.0065775E-2,1.0793555E-1,1.1874318E-1,1.4499128E-1,0E0,0E0,2.2156239E-3,1.3210095E-2,1.1908017E-2,8.766949E-3,0E0,0E0,0E0,0E0,0E0,8.9191366E-4,1.4370368E-3,2.444312E-4,0E0,0E0,0E0,0E0,0E0,0E0,0E0,0E0],"parents":[2147483647,0,0,1,1,2,2,3,3,4,4,5,5,6,6,9,9,10,10,11,11,12,12,18,18,19,19,20,20],"right_children":[2,4,6,8,10,12,14,-1,-1,16,18,20,22,-1,-1,-1,-1,-1,24,26,28,-1,-1,-1,-1,-1,-1,-1,-1],"split_conditions":[-1.9748108E0,-5.499941E0,1.470977E0,-7.401284E0,-3.724879E0,-5.8882218E-2,8.192421E-1,-7.7800485E-3,-5.219987E-3,-4.420992E0,-2.8734593E0,-1.1878579E0,6.1514027E-2,4.677192E-3,9.031227E-3,-3.4771236E-3,-2.398665E-3,-1.651551E-3,-2.354433E0,-1.6369184E0,-1.4923146E-1,2.0333591E-3,3.0564733E-3,-8.2853046E-4,-3.8445523E-4,6.625452E-5,5.1879435E-4,7.926885E-4,1.3390824E-3],"split_indices":[59,59,59,59,59,58,58,0,0,59,59,59,58,0,0,0,0,0,59,59,58,0,0,0,0,0,0,0,0],"split_type":[0,0,0,0,0,0,0,0,0,0,0,0,0,0,0,0,0,0,0,0,0,0,0,0,0,0,0,0,0],"sum_hessian":[3.3E2,1.56E2,1.74E2,5E1,1.06E2,1.22E2,5.2E1,1.4E1,3.6E1,5E1,5.6E1,5.6E1,6.6E1,4.2E1,1E1,3.3E1,1.7E1,3E1,2.6E1,2.6E1,3E1,2.4E1,4.2E1,1.6E1,1E1,1.1E1,1.5E1,8E0,2.2E1],"tree_param":{"num_deleted":"0","num_feature":"64","num_nodes":"29","size_leaf_vector":"1"}},{"base_weights":[-2.3485587E-3,-1.1089699E-1,9.991261E-2,-1.9977495E-1,-7.144101E-2,5.586292E-2,1.8286158E-1,-7.2428896E-3,-5.1292204E-3,-1.0426054E-1,-4.1992005E-2,2.6039513E-2,8.717331E-2,4.328775E-3,7.625866E-3,-3.3876395E-3,-2.347653E-3,-1.7043424E-3,-2.5082534E-2,9.648894E-3,3.993264E-2,1.9359192E-3,2.9075535E-3,-8.924235E-4,-4.06953E-4,6.4365646E-5,4.6533573E-4,7.886634E-4,1.3159724E-3],"categories":[],"categories_nodes":[],"categories_segments":[],"categories_sizes":[],"default_left":[0,0,0,0,0,0,0,0,0,0,0,0,0,0,0,0,0,0,0,0,0,0,0,0,0,0,0,0,0],"id":22,"left_children":[1,3,5,7,9,11,13,-1,-1,15,17,19,21,-1,-1,-1,-1,-1,23,25,27,-1,-1,-1,-1,-1,-1,-1,-1],"loss_changes":[3.7119126E0,5.51671E-1,6.169394E-1,9.490967E-3,1.051209E-1,1.0391405E-1,1.18861794E-1,0E0,0E0,1.3780594E-3,1.3876632E-2,1.324619E-2,4.67512E-3,0E0,0E0,0E0,0E0,0E0,1.192078E-3,1.2444851E-3,3.4413114E-4,0E0,0E0,0E0,0E0,0E0,0E0,0E0,0E0],"parents":[2147483647,0,0,1,1,2,2,3,3,4,4,5,5,6,6,9,9,10,10,11,11,12,12,18,18,19,19,20,20],"right_children":[2,4,6,8,10,12,14,-1,-1,16,18,20,22,-1,-1,-1,-1,-1,24,26,28,-1,-1,-1,-1,-1,-1,-1,-1],"split_conditions":[-1.9748108E0,-5.5580525E0,3.6843143E1,-1.8587067E2,-9.899368E1,-1.0257555E1,8.6754845E1,-7.2428896E-3,-5.1292204E-3,-1.1601889E2,-2.918202E0,-1.1878579E0,9.952162E0,4.328775E-3,7.625866E-3,-3.3876395E-3,-2.347653E-3,-1.7043424E-3,-6.2975235E1,-1.6366228E0,-2.2981537E1,1.9359192E-3,2.9075535E-3,-8.924235E-4,-4.06953E-4,6.4365646E-5,4.6533573E-4,7.886634E-4,1.3159724E-3],"split_indices":[59,59,54,54,54,54,54,0,0,54,59,59,54,0,0,0,0,0,54,59,54,0,0,0,0,0,0,0,0],"split_type":[0,0,0,0,0,0,0,0,0,0,0,0,0,0,0,0,0,0,0,0,0,0,0,0,0,0,0,0,0],"sum_hessian":[3.32E2,1.61E2,1.71E2,4.8E1,1.13E2,1.13E2,5.8E1,1.6E1,3.2E1,5.2E1,6.1E1,5.9E1,5.4E1,4E1,1.8E1,3.6E1,1.6E1,3.1E1,3E1,2.8E1,3.1E1,1.9E1,3.5E1,2E1,1E1,1.3E1,1.5E1,9E0,2.2E1],"tree_param":{"num_deleted":"0","num_feature":"64","num_nodes":"29","size_leaf_vector":"1"}},{"base_weights":[-4.194508E-3,-1.0873147E-1,9.503145E-2,-1.8608288E-1,-6.669581E-2,6.106145E-2,1.9186322E-1,-7.321492E-3,-4.8328964E-3,-9.518269E-2,-3.8303792E-2,2.5101602E-2,9.144669E-2,4.5101834E-3,9.054292E-3,-3.1340998E-3,-2.1516997E-3,-1.5373095E-3,-2.3789804E-2,9.1E-3,3.9670795E-2,2.018907E-3,3.1065454E-3,-8.4880344E-4,-3.6216085E-4,6.188589E-5,4.9033965E-4,8.4983103E-4,1.3185872E-3],"categories":[],"categories_nodes":[],"categories_segments":[],"categories_sizes":[],"default_left":[0,0,0,0,0,0,0,0,0,0,0,0,0,0,0,0,0,0,0,0,0,0,0,0,0,0,0,0,0],"id":23,"left_children":[1,3,5,7,9,11,13,-1,-1,15,17,19,21,-1,-1,-1,-1,-1,23,25,27,-1,-1,-1,-1,-1,-1,-1,-1],"loss_changes":[3.561965E0,5.287603E-1,5.655296E-1,3.7117004E-2,8.4754705E-2,1.4169359E-1,1.5190709E-1,0E0,0E0,2.8172433E-3,9.27978E-3,1.4067505E-2,1.2451351E-2,0E0,0E0,0E0,0E0,0E0,1.1310894E-3,1.5501671E-3,6.993115E-5,0E0,0E0,0E0,0E0,0E0,0E0,0E0,0E0],"parents":[2147483647,0,0,1,1,2,2,3,3,4,4,5,5,6,6,9,9,10,10,11,11,12,12,18,18,19,19,20,20],"right_children":[2,4,6,8,10,12,14,-1,-1,16,18,20,22,-1,-1,-1,-1,-1,24,26,28,-1,-1,-1,-1,-1,-1,-1,-1],"split_conditions":[-1.9748108E0,-1.3751672E2,2.8064692E-1,-7.401284E0,-3.5117369E0,-9.225562E0,1.0628054E2,-7.321492E-3,-4.8328964E-3,-4.2786384E0,-2.8734593E0,-1.9675225E-1,1.2428277E1,4.5101834E-3,9.054292E-3,-3.1340998E-3,-2.1516997E-3,-1.5373095E-3,-2.354433E0,-2.5142106E-1,-1.9224936E1,2.018907E-3,3.1065454E-3,-8.4880344E-4,-3.6216085E-4,6.188589E-5,4.9033965E-4,8.4983103E-4,1.3185872E-3],"split_indices":[59,54,58,59,59,54,54,0,0,59,59,58,54,0,0,0,0,0,59,58,54,0,0,0,0,0,0,0,0],"split_type":[0,0,0,0,0,0,0,0,0,0,0,0,0,0,0,0,0,0,0,0,0,0,0,0,0,0,0,0,0],"sum_hessian":[3.41E2,1.66E2,1.75E2,5.7E1,1.09E2,1.31E2,4.4E1,1.4E1,4.3E1,5.3E1,5.6E1,6.1E1,7E1,3.4E1,1E1,3.5E1,1.8E1,2.8E1,2.8E1,3E1,3.1E1,2.6E1,4.4E1,1.9E1,9E0,1.6E1,1.4E1,1.1E1,2E1],"tree_param":{"num_deleted":"0","num_feature":"64","num_nodes":"29","size_leaf_vector":"1"}},{"base_weights":[1.8856258E-3,-9.694484E-2,9.844677E-2,-1.5143201E-1,-4.828752E-2,6.990515E-2,2.1366556E-1,-5.4934244E-3,-3.3806853E-3,-6.850137E-2,-2.238956E-2,3.715834E-2,1.0103653E-1,5.0448854E-3,9.028408E-3,-2.2193922E-3,-1.4392473E-3,-8.952313E-4,-9.476977E-3,1.774301E-2,4.8536673E-2,2.4091166E-3,3.3817084E-3,-3.9104815E-4,-7.088625E-5,2.800922E-4,6.740384E-4,1.0967229E-3,1.632326E-3],"categories":[],"categories_nodes":[],"categories_segments":[],"categories_sizes":[],"default_left":[0,0,0,0,0,0,0,0,0,0,0,0,0,0,0,0,0,0,0,0,0,0,0,0,0,0,0,0,0],"id":24,"left_children":[1,3,5,7,9,11,13,-1,-1,15,17,19,21,-1,-1,-1,-1,-1,23,25,27,-1,-1,-1,-1,-1,-1,-1,-1],"loss_changes":[3.3057594E0,4.4511056E-1,5.5822706E-1,7.367909E-2,4.6425983E-2,1.4046109E-1,7.5096965E-2,0E0,0E0,1.4985353E-3,3.7210323E-3,1.4695652E-2,6.631732E-3,0E0,0E0,0E0,0E0,0E0,3.984014E-4,8.683987E-4,7.233396E-4,0E0,0E0,0E0,0E0,0E0,0E0,0E0,0E0],"parents":[2147483647,0,0,1,1,2,2,3,3,4,4,5,5,6,6,9,9,10,10,11,11,12,12,18,18,19,19,20,20],"right_children":[2,4,6,8,10,12,14,-1,-1,16,18,20,22,-1,-1,-1,-1,-1,24,26,28,-1,-1,-1,-1,-1,-1,-1,-1],"split_conditions":[-4.571748E1,-4.5471745E0,6.4690865E1,-5.768993E0,-3.1451893E0,5.3542986E0,1.5443462E2,-5.4934244E-3,-3.3806853E-3,-8.8457756E1,-6.2975235E1,-2.341996E1,1.5152855E-1,5.0448854E-3,9.028408E-3,-2.2193922E-3,-1.4392473E-3,-8.952313E-4,-5.3718678E1,-1.3852379E0,-1.566374E1,2.4091166E-3,3.3817084E-3,-3.9104815E-4,-7.088625E-5,2.800922E-4,6.740384E-4,1.0967229E-3,1.632326E-3],"split_indices":[54,59,54,59,59,54,54,0,0,54,54,54,58,0,0,0,0,0,54,59,54,0,0,0,0,0,0,0,0],"split_type":[0,0,0,0,0,0,0,0,0,0,0,0,0,0,0,0,0,0,0,0,0,0,0,0,0,0,0,0,0],"sum_hessian":[3.44E2,1.7E2,1.74E2,7.9E1,9.1E1,1.41E2,3.3E1,4.1E1,3.8E1,5E1,4.1E1,7E1,7.1E1,2.4E1,9E0,3.7E1,1.3E1,2.5E1,1.6E1,2.7E1,4.3E1,2.9E1,4.2E1,1E1,6E0,1.1E1,1.6E1,1.7E1,2.6E1],"tree_param":{"num_deleted":"0","num_feature":"64","num_nodes":"29","size_leaf_vector":"1"}},{"base_weights":[5.096487E-5,-9.89428E-2,8.97569E-2,-1.7946187E-1,-6.180351E-2,5.0964527E-2,1.6482107E-1,-6.701294E-3,-4.427367E-3,-9.063075E-2,-3.4138598E-2,2.504381E-2,7.850667E-2,4.1440404E-3,8.074697E-3,-3.0787888E-3,-2.1052693E-3,-1.4248863E-3,-2.231715E-2,7.908152E-3,3.4379497E-2,1.8207447E-3,2.642347E-3,-8.0194714E-4,-3.5182154E-4,3.617537E-5,3.5344274E-4,7.2749984E-4,1.189685E-3],"categories":[],"categories_nodes":[],"categories_segments":[],"categories_sizes":[],"default_left":[0,0,0,0,0,0,0,0,0,0,0,0,0,0,0,0,0,0,0,0,0,0,0,0,0,0,0,0,0],"id":25,"left_children":[1,3,5,7,9,11,13,-1,-1,15,17,19,21,-1,-1,-1,-1,-1,23,25,27,-1,-1,-1,-1,-1,-1,-1,-1],"loss_changes":[3.067266E0,4.777174E-1,5.175594E-1,3.2127857E-2,8.736205E-2,8.4166825E-2,1.2578559E-1,0E0,0E0,4.902184E-3,8.233987E-3,9.944014E-3,3.5094917E-3,0E0,0E0,0E0,0E0,0E0,1.2225807E-3,6.111809E-4,1.0481477E-3,0E0,0E0,0E0,0E0,0E0,0E0,0E0,0E0],"parents":[2147483647,0,0,1,1,2,2,3,3,4,4,5,5,6,6,9,9,10,10,11,11,12,12,18,18,19,19,20,20],"right_children":[2,4,6,8,10,12,14,-1,-1,16,18,20,22,-1,-1,-1,-1,-1,24,26,28,-1,-1,-1,-1,-1,-1,-1,-1],"split_conditions":[-1.8849425E0,-5.4372215E0,2.0654067E-1,-7.298998E0,-3.6526284E0,-5.8882218E-2,5.0471864E0,-6.701294E-3,-4.427367E-3,-4.420992E0,-2.8734593E0,-2.0778325E-1,6.1514027E-2,4.1440404E-3,8.074697E-3,-3.0787888E-3,-2.1052693E-3,-1.4248863E-3,-2.354433E0,-1.672462E0,-1.3530435E-1,1.8207447E-3,2.642347E-3,-8.0194714E-4,-3.5182154E-4,3.617537E-5,3.5344274E-4,7.2749984E-4,1.189685E-3],"split_indices":[59,59,58,59,59,58,60,0,0,59,59,58,58,0,0,0,0,0,59,59,58,0,0,0,0,0,0,0,0],"split_type":[0,0,0,0,0,0,0,0,0,0,0,0,0,0,0,0,0,0,0,0,0,0,0,0,0,0,0,0,0],"sum_hessian":[3.43E2,1.63E2,1.8E2,5E1,1.13E2,1.2E2,6E1,1.8E1,3.2E1,5.4E1,5.9E1,6.3E1,5.7E1,5E1,1E1,3.1E1,2.3E1,2.6E1,3.3E1,2.3E1,4E1,2.3E1,3.4E1,2.2E1,1.1E1,9E0,1.4E1,1.6E1,2.4E1],"tree_param":{"num_deleted":"0","num_feature":"64","num_nodes":"29","size_leaf_vector":"1"}},{"base_weights":[1.5161196E-3,-8.962532E-2,9.320154E-2,-1.4907642E-1,-4.826782E-2,6.443766E-2,2.043685E-1,-5.2932254E-3,-3.2561864E-3,-6.924951E-2,-2.2399217E-2,3.2862637E-2,9.439214E-2,4.999345E-3,1.0091855E-2,-2.3811357E-3,-1.6146592E-3,-9.721396E-4,-9.830922E-3,1.4540524E-2,4.4278715E-2,2.1861268E-3,3.1755317E-3,-3.9508255E-4,-2.0424524E-5,2.16538E-4,6.1903015E-4,9.906722E-4,1.4821921E-3],"categories":[],"categories_nodes":[],"categories_segments":[],"categories_sizes":[],"default_left":[0,0,0,0,0,0,0,0,0,0,0,0,0,0,0,0,0,0,0,0,0,0,0,0,0,0,0,0,0],"id":26,"left_children":[1,3,5,7,9,11,13,-1,-1,15,17,19,21,-1,-1,-1,-1,-1,23,25,27,-1,-1,-1,-1,-1,-1,-1,-1],"loss_changes":[2.7525752E0,3.975507E-1,5.0924194E-1,5.1561713E-2,5.1981106E-2,1.2131429E-1,9.808338E-2,0E0,0E0,3.3371747E-3,5.4274295E-3,1.3074234E-2,7.3159933E-3,0E0,0E0,0E0,0E0,0E0,6.673974E-4,1.0350081E-3,3.6247075E-4,0E0,0E0,0E0,0E0,0E0,0E0,0E0,0E0],"parents":[2147483647,0,0,1,1,2,2,3,3,4,4,5,5,6,6,9,9,10,10,11,11,12,12,18,18,19,19,20,20],"right_children":[2,4,6,8,10,12,14,-1,-1,16,18,20,22,-1,-1,-1,-1,-1,24,26,28,-1,-1,-1,-1,-1,-1,-1,-1],"split_conditions":[-1.739095E0,-4.6434E0,6.4690865E1,-5.8688164E0,-8.350804E1,9.816442E-1,4.5530224E-1,-5.2932254E-3,-3.2561864E-3,-9.905343E1,-6.575148E1,-2.766807E1,2.6360626E1,4.999345E-3,1.0091855E-2,-2.3811357E-3,-1.6146592E-3,-9.721396E-4,-1.9748108E0,-1.3091927E0,-1.6512114E1,2.1861268E-3,3.1755317E-3,-3.9508255E-4,-2.0424524E-5,2.16538E-4,6.1903015E-4,9.906722E-4,1.4821921E-3],"split_indices":[59,59,54,59,54,54,20,0,0,54,54,54,54,0,0,0,0,0,59,59,54,0,0,0,0,0,0,0,0],"split_type":[0,0,0,0,0,0,0,0,0,0,0,0,0,0,0,0,0,0,0,0,0,0,0,0,0,0,0,0,0],"sum_hessian":[3.27E2,1.64E2,1.63E2,6.6E1,9.8E1,1.31E2,3.2E1,3.7E1,2.9E1,5.3E1,4.5E1,6.5E1,6.6E1,2.7E1,5E0,2.9E1,2.4E1,2.4E1,2.1E1,2.6E1,3.9E1,2.6E1,4E1,1.5E1,6E0,1.3E1,1.3E1,1.5E1,2.4E1],"tree_param":{"num_deleted":"0","num_feature":"64","num_nodes":"29","size_leaf_vector":"1"}},{"base_weights":[1.2598123E-3,-9.2585504E-2,8.927099E-2,-1.5179655E-1,-4.9729023E-2,5.52803E-2,1.6939549E-1,-5.795307E-3,-3.6944023E-3,-6.9396265E-2,-2.4825502E-2,2.3890024E-2,8.0722176E-2,4.03264E-3,7.5488626E-3,-2.4329452E-3,-1.626076E-3,-9.970764E-4,-1.2442205E-2,9.246937E-3,3.3142716E-2,1.8060354E-3,2.7420155E-3,-4.5142006E-4,-1.9283316E-4,1.15263305E-4,4.2555743E-4,7.012378E-4,1.1095848E-3],"categories":[],"categories_nodes":[],"categories_segments":[],"categories_sizes":[],"default_left":[0,0,0,0,0,0,0,0,0,0,0,0,0,0,0,0,0,0,0,0,0,0,0,0,0,0,0,0,0],"id":27,"left_children":[1,3,5,7,9,11,13,-1,-1,15,17,19,21,-1,-1,-1,-1,-1,23,25,27,-1,-1,-1,-1,-1,-1,-1,-1],"loss_changes":[2.8362975E0,4.1268694E-1,4.7136474E-1,5.3492308E-2,4.6029374E-2,9.8472655E-2,1.09540224E-1,0E0,0E0,4.3616593E-3,4.2112675E-3,7.517636E-3,8.560866E-3,0E0,0E0,0E0,0E0,0E0,2.0043645E-4,5.8051385E-4,2.8407574E-4,0E0,0E0,0E0,0E0,0E0,0E0,0E0,0E0],"parents":[2147483647,0,0,1,1,2,2,3,3,4,4,5,5,6,6,9,9,10,10,11,11,12,12,18,18,19,19,20,20],"right_children":[2,4,6,8,10,12,14,-1,-1,16,18,20,22,-1,-1,-1,-1,-1,24,26,28,-1,-1,-1,-1,-1,-1,-1,-1],"split_conditions":[-4.8656235E1,-4.766311E0,2.853852E-1,-1.105472E0,-3.2348063E0,-7.888899E0,6.195964E-1,-5.795307E-3,-3.6944023E-3,-3.9082859E0,-4.0492103E-1,-3.288339E1,1.4127495E1,4.03264E-3,7.5488626E-3,-2.4329452E-3,-1.626076E-3,-9.970764E-4,-5.7309494E1,-2.5142106E-1,-1.3530435E-1,1.8060354E-3,2.7420155E-3,-4.5142006E-4,-1.9283316E-4,1.15263305E-4,4.2555743E-4,7.012378E-4,1.1095848E-3],"split_indices":[54,59,58,58,59,54,58,0,0,59,58,54,54,0,0,0,0,0,54,58,58,0,0,0,0,0,0,0,0],"split_type":[0,0,0,0,0,0,0,0,0,0,0,0,0,0,0,0,0,0,0,0,0,0,0,0,0,0,0,0,0],"sum_hessian":[3.41E2,1.65E2,1.76E2,6.8E1,9.7E1,1.25E2,5.1E1,2.5E1,4.3E1,5.3E1,4.4E1,5.7E1,6.8E1,3.8E1,1.3E1,2.7E1,2.6E1,2.5E1,1.9E1,2.3E1,3.4E1,2.6E1,4.2E1,1.2E1,7E0,1.2E1,1.1E1,1.2E1,2.2E1],"tree_param":{"num_deleted":"0","num_feature":"64","num_nodes":"29","size_leaf_vector":"1"}},{"base_weights":[2.8881824E-4,-9.304137E-2,8.711315E-2,-1.7001349E-1,-6.0250357E-2,6.443562E-2,2.1053284E-1,-6.552007E-3,-4.318731E-3,-8.952523E-2,-3.4049008E-2,3.0884085E-2,9.5211186E-2,5.1107E-3,9.214835E-3,-2.9391495E-3,-2.0971957E-3,-1.4311218E-3,-1.9549113E-2,1.5991405E-2,1.3314048E-3,2.1936025E-3,3.2077536E-3,-7.609251E-4,-3.5781052E-4,1.6557239E-4,6.9266E-4],"categories":[],"categories_nodes":[],"categories_segments":[],"categories_sizes":[],"default_left":[0,0,0,0,0,0,0,0,0,0,0,0,0,0,0,0,0,0,0,0,0,0,0,0,0,0,0],"id":28,"left_children":[1,3,5,7,9,11,13,-1,-1,15,17,19,21,-1,-1,-1,-1,-1,23,25,-1,-1,-1,-1,-1,-1,-1],"loss_changes":[2.6935494E0,3.9205182E-1,4.6568358E-1,2.177918E-2,8.393821E-2,1.484654E-1,3.8920164E-2,0E0,0E0,5.970001E-4,1.1196315E-2,1.3660021E-2,1.0336459E-2,0E0,0E0,0E0,0E0,0E0,1.0641748E-3,2.5376454E-3,0E0,0E0,0E0,0E0,0E0,0E0,0E0],"parents":[2147483647,0,0,1,1,2,2,3,3,4,4,5,5,6,6,9,9,10,10,11,11,12,12,18,18,19,19],"right_children":[2,4,6,8,10,12,14,-1,-1,16,18,20,22,-1,-1,-1,-1,-1,24,26,-1,-1,-1,-1,-1,-1,-1],"split_conditions":[-3.0670416E-1,-5.6477404E0,2.547293E0,-1.9289317E2,-9.905343E1,2.419109E0,1.757223E2,-6.552007E-3,-4.318731E-3,-4.5471745E0,-4.7601584E-1,-1.9224936E1,2.9872118E1,5.1107E-3,9.214835E-3,-2.9391495E-3,-2.0971957E-3,-1.4311218E-3,-2.4780352E0,-2.1272893E-1,1.3314048E-3,2.1936025E-3,3.2077536E-3,-7.609251E-4,-3.5781052E-4,1.6557239E-4,6.9266E-4],"split_indices":[58,59,59,54,54,54,54,0,0,59,58,54,54,0,0,0,0,0,59,58,0,0,0,0,0,0,0],"split_type":[0,0,0,0,0,0,0,0,0,0,0,0,0,0,0,0,0,0,0,0,0,0,0,0,0,0,0],"sum_hessian":[3.3E2,1.59E2,1.71E2,4.6E1,1.13E2,1.46E2,2.5E1,1.3E1,3.3E1,5.2E1,6.1E1,7.1E1,7.5E1,2E1,5E0,3.3E1,1.9E1,3E1,3.1E1,3.5E1,3.6E1,2.9E1,4.6E1,1.6E1,1.5E1,1.5E1,2E1],"tree_param":{"num_deleted":"0","num_feature":"64","num_nodes":"27","size_leaf_vector":"1"}},{"base_weights":[4.1472158E-4,-8.569443E-2,8.3588846E-2,-1.4191455E-1,-4.7544766E-2,5.755174E-2,1.8967675E-1,-5.719804E-3,-3.508243E-3,-7.018872E-2,-2.4679651E-2,2.8329153E-2,8.58178E-2,4.659835E-3,9.442124E-3,-2.3557076E-3,-1.6184809E-3,-3.3308048E-2,-9.7703E-3,1.2018192E-2,3.89448E-2,2.040794E-3,2.9384822E-3,-1.1287815E-3,-7.567243E-4,-3.8835526E-4,-1.18219716E-4,1.925099E-4,5.5945467E-4,8.6830836E-4,1.3232537E-3],"categories":[],"categories_nodes":[],"categories_segments":[],"categories_sizes":[],"default_left":[0,0,0,0,0,0,0,0,0,0,0,0,0,0,0,0,0,0,0,0,0,0,0,0,0,0,0,0,0,0,0],"id":29,"left_children":[1,3,5,7,9,11,13,-1,-1,15,17,19,21,-1,-1,-1,-1,23,25,27,29,-1,-1,-1,-1,-1,-1,-1,-1,-1,-1],"loss_changes":[2.4809368E0,3.5694468E-1,4.7360384E-1,5.6266308E-2,5.1353812E-2,1.15366936E-1,8.8248014E-2,0E0,0E0,1.8464923E-3,6.4533316E-3,1.1939872E-2,7.5876117E-3,0E0,0E0,0E0,0E0,1.9989908E-5,3.3116317E-4,9.779544E-4,6.989762E-4,0E0,0E0,0E0,0E0,0E0,0E0,0E0,0E0,0E0,0E0],"parents":[2147483647,0,0,1,1,2,2,3,3,4,4,5,5,6,6,9,9,10,10,11,11,12,12,17,17,18,18,19,19,20,20],"right_children":[2,4,6,8,10,12,14,-1,-1,16,18,20,22,-1,-1,-1,-1,24,26,28,30,-1,-1,-1,-1,-1,-1,-1,-1,-1,-1],"split_conditions":[-2.7995276E-1,-4.766311E0,3.75223E-1,-1.1593478E0,-3.3239324E0,-8.855762E-3,1.003848E0,-5.719804E-3,-3.508243E-3,-4.0534234E0,-4.0492103E-1,-1.7462407E-1,1.6028543E-1,4.659835E-3,9.442124E-3,-2.3557076E-3,-1.6184809E-3,-2.8734593E0,-3.3778194E-1,-2.1272893E-1,-6.0080045E-1,2.040794E-3,2.9384822E-3,-1.1287815E-3,-7.567243E-4,-3.8835526E-4,-1.18219716E-4,1.925099E-4,5.5945467E-4,8.6830836E-4,1.3232537E-3],"split_indices":[58,59,58,58,59,58,58,0,0,59,58,58,58,0,0,0,0,59,58,58,59,0,0,0,0,0,0,0,0,0,0],"split_type":[0,0,0,0,0,0,0,0,0,0,0,0,0,0,0,0,0,0,0,0,0,0,0,0,0,0,0,0,0,0,0],"sum_hessian":[3.44E2,1.69E2,1.75E2,6.7E1,1.02E2,1.42E2,3.3E1,2E1,4.7E1,5E1,5.2E1,7.1E1,7.1E1,2.8E1,5E0,3E1,2E1,3.2E1,2E1,2.9E1,4.2E1,3.2E1,3.9E1,1.8E1,1.4E1,1.2E1,8E0,1.7E1,1.2E1,1.7E1,2.5E1],"tree_param":{"num_deleted":"0","num_feature":"64","num_nodes":"31","size_leaf_vector":"1"}},{"base_weights":[3.6077246E-3,-7.797504E-2,8.516521E-2,-1.3857146E-1,-4.292362E-2,5.6325693E-2,1.6650067E-1,-5.2675623E-3,-3.2940248E-3,-6.287151E-2,-2.0132737E-2,2.76971E-2,8.1818365E-2,4.238762E-3,8.809745E-3,-2.2020987E-3,-1.4818584E-3,-8.662224E-4,-9.0451725E-3,1.5207477E-2,1.1417111E-3,1.9383407E-3,2.7433983E-3,-3.9166512E-4,-4.8350543E-5,2.2121827E-4,5.9658755E-4],"categories":[],"categories_nodes":[],"categories_segments":[],"categories_sizes":[],"default_left":[0,0,0,0,0,0,0,0,0,0,0,0,0,0,0,0,0,0,0,0,0,0,0,0,0,0,0],"id":30,"left_children":[1,3,5,7,9,11,13,-1,-1,15,17,19,21,-1,-1,-1,-1,-1,23,25,-1,-1,-1,-1,-1,-1,-1],"loss_changes":[2.278206E0,3.5648954E-1,3.9032578E-1,4.3102384E-2,4.8581302E-2,9.08435E-2,9.189165E-2,0E0,0E0,3.90929E-3,4.8427507E-3,7.353667E-3,4.0430725E-3,0E0,0E0,0E0,0E0,0E0,7.259813E-4,9.309021E-4,0E0,0E0,0E0,0E0,0E0,0E0,0E0],"parents":[2147483647,0,0,1,1,2,2,3,3,4,4,5,5,6,6,9,9,10,10,11,11,12,12,18,18,19,19],"right_children":[2,4,6,8,10,12,14,-1,-1,16,18,20,22,-1,-1,-1,-1,-1,24,26,-1,-1,-1,-1,-1,-1,-1],"split_conditions":[-2.698026E-1,-4.766311E0,5.595843E1,-6.485491E0,-8.350804E1,-1.6201465E0,1.6342064E2,-5.2675623E-3,-3.2940248E-3,-1.04450386E2,-2.4780352E0,-2.341996E1,2.3583624E1,4.238762E-3,8.809745E-3,-2.2020987E-3,-1.4818584E-3,-8.662224E-4,-5.3718678E1,-2.2111505E-1,1.1417111E-3,1.9383407E-3,2.7433983E-3,-3.9166512E-4,-4.8350543E-5,2.2121827E-4,5.9658755E-4],"split_indices":[58,59,54,59,54,54,54,0,0,54,59,54,54,0,0,0,0,0,54,58,0,0,0,0,0,0,0],"split_type":[0,0,0,0,0,0,0,0,0,0,0,0,0,0,0,0,0,0,0,0,0,0,0,0,0,0,0],"sum_hessian":[3.4E2,1.7E2,1.7E2,6.1E1,1.09E2,1.27E2,4.3E1,2.4E1,3.7E1,5.7E1,5.2E1,6.1E1,6.6E1,3.8E1,5E0,2.9E1,2.8E1,2.8E1,2.4E1,2.9E1,3.2E1,2.7E1,3.9E1,1.5E1,9E0,1.2E1,1.7E1],"tree_param":{"num_deleted":"0","num_feature":"64","num_nodes":"27","size_leaf_vector":"1"}},{"base_weights":[-1.569501E-3,-8.157152E-2,8.787372E-2,-1.4326006E-1,-4.775932E-2,6.4490534E-2,2.0022511E-1,-5.8049797E-3,-3.63931E-3,-7.08691E-2,-2.2473589E-2,3.3420194E-2,9.268808E-2,4.74714E-3,8.71449E-3,-2.4426507E-3,-1.6787556E-3,-3.1547736E-2,-8.1604365E-3,1.911314E-2,1.4344419E-3,2.1938337E-3,3.0864582E-3,-1.0991542E-3,-7.099213E-4,-3.476756E-4,-3.175347E-5,2.5263068E-4,7.262392E-4],"categories":[],"categories_nodes":[],"categories_segments":[],"categories_sizes":[],"default_left":[0,0,0,0,0,0,0,0,0,0,0,0,0,0,0,0,0,0,0,0,0,0,0,0,0,0,0,0,0],"id":31,"left_children":[1,3,5,7,9,11,13,-1,-1,15,17,19,21,-1,-1,-1,-1,23,25,27,-1,-1,-1,-1,-1,-1,-1,-1,-1],"loss_changes":[2.4429495E0,3.676554E-1,4.079988E-1,4.1524768E-2,6.71587E-2,1.14732504E-1,4.7920465E-2,0E0,0E0,4.1620433E-3,7.2500613E-3,1.2536779E-2,4.969299E-3,0E0,0E0,0E0,0E0,3.722906E-4,5.7457306E-4,1.6728779E-3,0E0,0E0,0E0,0E0,0E0,0E0,0E0,0E0,0E0],"parents":[2147483647,0,0,1,1,2,2,3,3,4,4,5,5,6,6,9,9,10,10,11,11,12,12,17,17,18,18,19,19],"right_children":[2,4,6,8,10,12,14,-1,-1,16,18,20,22,-1,-1,-1,-1,24,26,28,-1,-1,-1,-1,-1,-1,-1,-1,-1],"split_conditions":[-1.6956863E0,-8.145185E-1,2.6574762E0,-1.8587067E2,-3.35227E0,6.371601E-2,1.757223E2,-5.8049797E-3,-3.63931E-3,-4.2786384E0,-2.4780352E0,-1.0013639E-1,3.379535E1,4.74714E-3,8.71449E-3,-2.4426507E-3,-1.6787556E-3,-2.961117E0,-1.9748108E0,-3.5518986E1,1.4344419E-3,2.1938337E-3,3.0864582E-3,-1.0991542E-3,-7.099213E-4,-3.476756E-4,-3.175347E-5,2.5263068E-4,7.262392E-4],"split_indices":[59,58,59,54,59,58,54,0,0,59,59,58,54,0,0,0,0,59,59,54,0,0,0,0,0,0,0,0,0],"split_type":[0,0,0,0,0,0,0,0,0,0,0,0,0,0,0,0,0,0,0,0,0,0,0,0,0,0,0,0,0],"sum_hessian":[3.39E2,1.79E2,1.6E2,6.2E1,1.17E2,1.34E2,2.6E1,1.6E1,4.6E1,6E1,5.7E1,6.5E1,6.9E1,2E1,6E0,3.2E1,2.8E1,3.4E1,2.3E1,3.4E1,3.1E1,2.7E1,4.2E1,1.8E1,1.6E1,1.5E1,8E0,1.2E1,2.2E1],"tree_param":{"num_deleted":"0","num_feature":"64","num_nodes":"29","size_leaf_vector":"1"}},{"base_weights":[1.627325E-3,-7.6868996E-2,7.608016E-2,-1.21710435E-1,-3.746765E-2,5.449532E-2,1.6643113E-1,-4.529957E-3,-2.7073876E-3,-5.3472295E-2,-1.9359495E-2,2.937401E-2,8.160455E-2,4.057722E-3,8.280264E-3,-1.7198451E-3,-1.1031457E-3,-7.7789125E-4,-1.0012922E-2,1.4421446E-2,4.1011013E-2,1.8494555E-3,2.650507E-3,-4.1454672E-4,-1.0982173E-4,1.7187682E-4,5.9511885E-4,9.2062686E-4,1.395418E-3],"categories":[],"categories_nodes":[],"categories_segments":[],"categories_sizes":[],"default_left":[0,0,0,0,0,0,0,0,0,0,0,0,0,0,0,0,0,0,0,0,0,0,0,0,0,0,0,0,0],"id":32,"left_children":[1,3,5,7,9,11,13,-1,-1,15,17,19,21,-1,-1,-1,-1,-1,23,25,27,-1,-1,-1,-1,-1,-1,-1,-1],"loss_changes":[1.9952397E0,2.8817213E-1,3.3079326E-1,5.4789424E-2,2.4899036E-2,9.46455E-2,6.861073E-2,0E0,0E0,5.0984323E-4,2.402719E-3,1.25493035E-2,2.6448965E-3,0E0,0E0,0E0,0E0,0E0,4.275737E-4,1.5206835E-3,6.844625E-4,0E0,0E0,0E0,0E0,0E0,0E0,0E0,0E0],"parents":[2147483647,0,0,1,1,2,2,3,3,4,4,5,5,6,6,9,9,10,10,11,11,12,12,18,18,19,19,20,20],"right_children":[2,4,6,8,10,12,14,-1,-1,16,18,20,22,-1,-1,-1,-1,-1,24,26,28,-1,-1,-1,-1,-1,-1,-1,-1],"split_conditions":[-2.7995276E-1,-4.568206E0,6.472557E1,-1.5263145E2,-3.1451893E0,7.2818723E0,1.6342064E2,-4.529957E-3,-2.7073876E-3,-3.35227E0,-4.0492103E-1,-2.2981537E1,2.5936771E1,4.057722E-3,8.280264E-3,-1.7198451E-3,-1.1031457E-3,-7.7789125E-4,-3.4650037E-1,-1.3852379E0,-8.102858E-2,1.8494555E-3,2.650507E-3,-4.1454672E-4,-1.0982173E-4,1.7187682E-4,5.9511885E-4,9.2062686E-4,1.395418E-3],"split_indices":[58,59,54,54,59,54,54,0,0,59,58,54,54,0,0,0,0,0,58,59,58,0,0,0,0,0,0,0,0],"split_type":[0,0,0,0,0,0,0,0,0,0,0,0,0,0,0,0,0,0,0,0,0,0,0,0,0,0,0,0,0],"sum_hessian":[3.39E2,1.65E2,1.74E2,7.6E1,8.9E1,1.42E2,3.2E1,3.7E1,3.9E1,4.6E1,4.3E1,7.5E1,6.7E1,2.7E1,5E0,3.5E1,1.1E1,2.4E1,1.9E1,3.4E1,4.1E1,2E1,4.7E1,1.1E1,8E0,1.4E1,2E1,1.7E1,2.4E1],"tree_param":{"num_deleted":"0","num_feature":"64","num_nodes":"29","size_leaf_vector":"1"}},{"base_weights":[-2.5455724E-3,-8.0239266E-2,7.112856E-2,-1.447997E-1,-5.1270343E-2,4.87412E-2,1.6734372E-1,-5.8299424E-3,-3.69406E-3,-7.270001E-2,-2.801579E-2,2.0680275E-2,7.272027E-2,4.1608294E-3,8.522816E-3,-2.462141E-3,-1.6523016E-3,-1.1310821E-3,-1.6449668E-2,7.4941977E-3,3.2412134E-2,1.6862922E-3,2.5131325E-3,-5.7730265E-4,-2.4509817E-4,3.4339228E-5,3.7955635E-4,6.724967E-4,1.0593353E-3],"categories":[],"categories_nodes":[],"categories_segments":[],"categories_sizes":[],"default_left":[0,0,0,0,0,0,0,0,0,0,0,0,0,0,0,0,0,0,0,0,0,0,0,0,0,0,0,0,0],"id":33,"left_children":[1,3,5,7,9,11,13,-1,-1,15,17,19,21,-1,-1,-1,-1,-1,23,25,27,-1,-1,-1,-1,-1,-1,-1,-1],"loss_changes":[1.9312629E0,2.981857E-1,3.632856E-1,2.5153399E-2,5.4964334E-2,9.387815E-2,6.0420692E-2,0E0,0E0,4.3528974E-3,5.6644753E-3,1.0104166E-2,8.252531E-3,0E0,0E0,0E0,0E0,0E0,4.6364823E-4,1.069888E-3,7.014349E-5,0E0,0E0,0E0,0E0,0E0,0E0,0E0,0E0],"parents":[2147483647,0,0,1,1,2,2,3,3,4,4,5,5,6,6,9,9,10,10,11,11,12,12,18,18,19,19,20,20],"right_children":[2,4,6,8,10,12,14,-1,-1,16,18,20,22,-1,-1,-1,-1,-1,24,26,28,-1,-1,-1,-1,-1,-1,-1,-1],"split_conditions":[-1.9748108E0,-5.5580525E0,5.918131E1,-1.9289317E2,-5.796224E-1,-5.4799595E0,1.757223E2,-5.8299424E-3,-3.69406E-3,-1.153217E2,-2.8734593E0,-3.0774014E1,2.2784065E1,4.1608294E-3,8.522816E-3,-2.462141E-3,-1.6523016E-3,-1.1310821E-3,-3.7779295E-1,-2.5849646E-1,-1.8699333E1,1.6862922E-3,2.5131325E-3,-5.7730265E-4,-2.4509817E-4,3.4339228E-5,3.7955635E-4,6.724967E-4,1.0593353E-3],"split_indices":[59,59,54,54,58,54,54,0,0,54,59,54,54,0,0,0,0,0,58,58,54,0,0,0,0,0,0,0,0],"split_type":[0,0,0,0,0,0,0,0,0,0,0,0,0,0,0,0,0,0,0,0,0,0,0,0,0,0,0,0,0],"sum_hessian":[3.35E2,1.63E2,1.72E2,4.9E1,1.14E2,1.41E2,3.1E1,1.2E1,3.7E1,5.8E1,5.6E1,6.6E1,7.5E1,2.7E1,4E0,3.5E1,2.3E1,2.9E1,2.7E1,3.2E1,3.4E1,3.3E1,4.2E1,1.9E1,8E0,1.5E1,1.7E1,1E1,2.4E1],"tree_param":{"num_deleted":"0","num_feature":"64","num_nodes":"29","size_leaf_vector":"1"}},{"base_weights":[-4.0907213E-3,-7.492538E-2,6.592107E-2,-1.4478996E-1,-4.9491167E-2,3.6804255E-2,1.23671085E-1,-5.746871E-3,-3.6501852E-3,-7.366883E-2,-2.8387386E-2,1.7211063E-2,5.814533E-2,2.9277483E-3,5.5379006E-3,-2.3897714E-3,-1.677286E-3,-1.1912353E-3,-1.737679E-2,4.7190934E-3,2.592232E-2,1.3653899E-3,1.9787257E-3,-6.6898786E-4,-3.311333E-4,-7.4142195E-6,2.499777E-4,4.2329443E-4,8.195213E-4],"categories":[],"categories_nodes":[],"categories_segments":[],"categories_sizes":[],"default_left":[0,0,0,0,0,0,0,0,0,0,0,0,0,0,0,0,0,0,0,0,0,0,0,0,0,0,0,0,0],"id":34,"left_children":[1,3,5,7,9,11,13,-1,-1,15,17,19,21,-1,-1,-1,-1,-1,23,25,27,-1,-1,-1,-1,-1,-1,-1,-1],"loss_changes":[1.6385157E0,2.8317636E-1,2.7400273E-1,1.8740177E-2,5.984184E-2,4.5714393E-2,6.608963E-2,0E0,0E0,6.342232E-4,7.548142E-3,6.4042155E-3,1.6477853E-3,0E0,0E0,0E0,0E0,0E0,8.3428156E-4,4.7264254E-4,1.1753477E-4,0E0,0E0,0E0,0E0,0E0,0E0,0E0,0E0],"parents":[2147483647,0,0,1,1,2,2,3,3,4,4,5,5,6,6,9,9,10,10,11,11,12,12,18,18,19,19,20,20],"right_children":[2,4,6,8,10,12,14,-1,-1,16,18,20,22,-1,-1,-1,-1,-1,24,26,28,-1,-1,-1,-1,-1,-1,-1,-1],"split_conditions":[-1.9748108E0,-1.4500389E2,2.0298141E-1,-1.9289317E2,-9.899368E1,-1.2984368E1,7.795681E1,-5.746871E-3,-3.6501852E-3,-1.1601889E2,-2.961117E0,-3.528248E1,8.669444E0,2.9277483E-3,5.5379006E-3,-2.3897714E-3,-1.677286E-3,-1.1912353E-3,-2.4780352E0,-1.672462E0,-3.0774014E1,1.3653899E-3,1.9787257E-3,-6.6898786E-4,-3.311333E-4,-7.4142195E-6,2.499777E-4,4.2329443E-4,8.195213E-4],"split_indices":[59,54,58,54,54,54,54,0,0,54,59,54,54,0,0,0,0,0,59,59,54,0,0,0,0,0,0,0,0],"split_type":[0,0,0,0,0,0,0,0,0,0,0,0,0,0,0,0,0,0,0,0,0,0,0,0,0,0,0,0,0],"sum_hessian":[3.28E2,1.63E2,1.65E2,4.2E1,1.21E2,1.11E2,5.4E1,1.1E1,3.1E1,5.5E1,6.6E1,5.9E1,5.2E1,4E1,1.4E1,3.8E1,1.7E1,3.1E1,3.5E1,2.5E1,3.4E1,2.3E1,2.9E1,1.8E1,1.7E1,1.1E1,1.4E1,5E0,2.9E1],"tree_param":{"num_deleted":"0","num_feature":"64","num_nodes":"29","size_leaf_vector":"1"}},{"base_weights":[2.0379045E-3,-7.3937595E-2,7.209719E-2,-1.3773976E-1,-4.6629712E-2,5.0642535E-2,1.619103E-1,-5.4275254E-3,-3.4871004E-3,-6.7488186E-2,-2.2177557E-2,2.612988E-2,7.5671524E-2,4.0890262E-3,8.198339E-3,-2.2489708E-3,-1.4887849E-3,-3.07739E-2,-1.0924922E-2,1.4028129E-2,1.131828E-3,1.7466663E-3,2.536472E-3,-1.048994E-3,-6.8399135E-4,-4.2569768E-4,-1.5095412E-4,1.9123187E-4,5.693057E-4],"categories":[],"categories_nodes":[],"categories_segments":[],"categories_sizes":[],"default_left":[0,0,0,0,0,0,0,0,0,0,0,0,0,0,0,0,0,0,0,0,0,0,0,0,0,0,0,0,0],"id":35,"left_children":[1,3,5,7,9,11,13,-1,-1,15,17,19,21,-1,-1,-1,-1,23,25,27,-1,-1,-1,-1,-1,-1,-1,-1,-1],"loss_changes":[1.8438237E0,2.8186327E-1,3.3738947E-1,2.044487E-2,5.8490008E-2,8.793846E-2,5.2842796E-2,0E0,0E0,3.9769113E-3,5.032869E-3,1.0059774E-2,5.277097E-3,0E0,0E0,0E0,0E0,8.6419284E-5,4.1843392E-4,1.3395892E-3,0E0,0E0,0E0,0E0,0E0,0E0,0E0,0E0,0E0],"parents":[2147483647,0,0,1,1,2,2,3,3,4,4,5,5,6,6,9,9,10,10,11,11,12,12,17,17,18,18,19,19],"right_children":[2,4,6,8,10,12,14,-1,-1,16,18,20,22,-1,-1,-1,-1,24,26,28,-1,-1,-1,-1,-1,-1,-1,-1,-1],"split_conditions":[-2.7995276E-1,-9.013214E-1,2.422037E0,-1.9289317E2,-5.5807966E-1,5.3542986E0,2.1584209E2,-5.4275254E-3,-3.4871004E-3,-4.2786384E0,-2.6619873E0,-1.8699333E1,1.6643031E-1,4.0890262E-3,8.198339E-3,-2.2489708E-3,-1.4887849E-3,-4.8474866E-1,-2.2697225E0,-1.3091927E0,1.131828E-3,1.7466663E-3,2.536472E-3,-1.048994E-3,-6.8399135E-4,-4.2569768E-4,-1.5095412E-4,1.9123187E-4,5.693057E-4],"split_indices":[58,58,59,54,58,54,54,0,0,59,59,54,58,0,0,0,0,58,59,59,0,0,0,0,0,0,0,0,0],"split_type":[0,0,0,0,0,0,0,0,0,0,0,0,0,0,0,0,0,0,0,0,0,0,0,0,0,0,0,0,0],"sum_hessian":[3.44E2,1.65E2,1.79E2,4.8E1,1.17E2,1.46E2,3.3E1,1.3E1,3.5E1,6.2E1,5.5E1,7.5E1,7.1E1,2.9E1,4E0,4.1E1,2.1E1,3E1,2.5E1,3.8E1,3.7E1,2.7E1,4.4E1,1.7E1,1.3E1,1.5E1,1E1,1.6E1,2.2E1],"tree_param":{"num_deleted":"0","num_feature":"64","num_nodes":"29","size_leaf_vector":"1"}},{"base_weights":[-1.8906988E-4,-7.1434066E-2,6.502631E-2,-1.302557E-1,-4.7515295E-2,3.9348792E-2,1.347479E-1,-4.5878617E-3,-3.2301317E-3,-6.708898E-2,-2.4071908E-2,1.6676625E-2,5.9998862E-2,3.094548E-3,5.983766E-3,-2.254508E-3,-1.5678816E-3,-3.1731516E-2,-1.3442304E-2,6.0093044E-3,7.746921E-4,1.3762688E-3,2.0894785E-3,-1.1077E-3,-7.2567636E-4,-4.8856426E-4,-1.9120399E-4,4.1375308E-5,3.0582893E-4],"categories":[],"categories_nodes":[],"categories_segments":[],"categories_sizes":[],"default_left":[0,0,0,0,0,0,0,0,0,0,0,0,0,0,0,0,0,0,0,0,0,0,0,0,0,0,0,0,0],"id":36,"left_children":[1,3,5,7,9,11,13,-1,-1,15,17,19,21,-1,-1,-1,-1,23,25,27,-1,-1,-1,-1,-1,-1,-1,-1,-1],"loss_changes":[1.5769426E0,2.20779E-1,3.1087452E-1,3.8980246E-3,5.1842034E-2,6.022474E-2,7.18171E-2,0E0,0E0,2.8404891E-3,3.982451E-3,6.0776565E-3,5.461082E-3,0E0,0E0,0E0,0E0,1.4996156E-4,3.8191397E-4,5.8769225E-4,0E0,0E0,0E0,0E0,0E0,0E0,0E0,0E0,0E0],"parents":[2147483647,0,0,1,1,2,2,3,3,4,4,5,5,6,6,9,9,10,10,11,11,12,12,17,17,18,18,19,19],"right_children":[2,4,6,8,10,12,14,-1,-1,16,18,20,22,-1,-1,-1,-1,24,26,28,-1,-1,-1,-1,-1,-1,-1,-1,-1],"split_conditions":[-1.928688E0,-5.6477404E0,4.974164E1,-7.2391024E0,-9.2605774E1,-1.0257555E1,6.195964E-1,-4.5878617E-3,-3.2301317E-3,-1.153217E2,-4.5246878E-1,-1.217018E0,1.4127495E1,3.094548E-3,5.983766E-3,-2.254508E-3,-1.5678816E-3,-3.1451893E0,-3.7779295E-1,-4.256199E1,7.746921E-4,1.3762688E-3,2.0894785E-3,-1.1077E-3,-7.2567636E-4,-4.8856426E-4,-1.9120399E-4,4.1375308E-5,3.0582893E-4],"split_indices":[59,59,54,59,54,54,58,0,0,54,58,59,54,0,0,0,0,59,58,54,0,0,0,0,0,0,0,0,0],"split_type":[0,0,0,0,0,0,0,0,0,0,0,0,0,0,0,0,0,0,0,0,0,0,0,0,0,0,0,0,0],"sum_hessian":[3.37E2,1.61E2,1.76E2,4.5E1,1.16E2,1.3E2,4.6E1,1.9E1,2.6E1,6.2E1,5.4E1,6.3E1,6.7E1,3.3E1,1.3E1,3.7E1,2.5E1,3E1,2.4E1,3E1,3.3E1,3E1,3.7E1,1.5E1,1.5E1,1.6E1,8E0,1.5E1,1.5E1],"tree_param":{"num_deleted":"0","num_feature":"64","num_nodes":"29","size_leaf_vector":"1"}},{"base_weights":[-6.087311E-4,-7.149593E-2,6.255099E-2,-1.3171834E-1,-4.700729E-2,4.5727517E-2,1.477054E-1,-5.2239047E-3,-3.3962217E-3,-6.503593E-2,-2.4003573E-2,2.033612E-2,6.7819625E-2,3.236002E-3,5.4951166E-3,-2.1864863E-3,-1.5274716E-3,-9.5051475E-4,-1.3095482E-2,7.061554E-3,3.0031718E-2,1.5920965E-3,2.331743E-3,-4.5901016E-4,-1.693723E-4,6.46464E-5,3.6169053E-4,6.874819E-4,1.0533546E-3],"categories":[],"categories_nodes":[],"categories_segments":[],"categories_sizes":[],"default_left":[0,0,0,0,0,0,0,0,0,0,0,0,0,0,0,0,0,0,0,0,0,0,0,0,0,0,0,0,0],"id":37,"left_children":[1,3,5,7,9,11,13,-1,-1,15,17,19,21,-1,-1,-1,-1,-1,23,25,27,-1,-1,-1,-1,-1,-1,-1,-1],"loss_changes":[1.4747889E0,2.2145343E-1,2.4145263E-1,1.1045277E-2,4.4658914E-2,8.091676E-2,1.6133785E-2,0E0,0E0,2.438724E-3,3.7914813E-3,8.780597E-3,6.4750314E-3,0E0,0E0,0E0,0E0,0E0,2.7741585E-4,7.334687E-4,4.8760697E-4,0E0,0E0,0E0,0E0,0E0,0E0,0E0,0E0],"parents":[2147483647,0,0,1,1,2,2,3,3,4,4,5,5,6,6,9,9,10,10,11,11,12,12,18,18,19,19,20,20],"right_children":[2,4,6,8,10,12,14,-1,-1,16,18,20,22,-1,-1,-1,-1,-1,24,26,28,-1,-1,-1,-1,-1,-1,-1,-1],"split_conditions":[-1.9748108E0,-1.4552818E2,3.946189E-1,-1.9289317E2,-3.5117369E0,-3.028404E0,1.0628054E2,-5.2239047E-3,-3.3962217E-3,-4.463723E0,-4.4209695E-1,-3.0470684E1,2.693872E1,3.236002E-3,5.4951166E-3,-2.1864863E-3,-1.5274716E-3,-9.5051475E-4,-2.2697225E0,-2.5142106E-1,-1.6512114E1,1.5920965E-3,2.331743E-3,-4.5901016E-4,-1.693723E-4,6.46464E-5,3.6169053E-4,6.874819E-4,1.0533546E-3],"split_indices":[59,54,58,54,59,54,54,0,0,59,58,54,54,0,0,0,0,0,59,58,54,0,0,0,0,0,0,0,0],"split_type":[0,0,0,0,0,0,0,0,0,0,0,0,0,0,0,0,0,0,0,0,0,0,0,0,0,0,0,0,0],"sum_hessian":[3.27E2,1.54E2,1.73E2,4.3E1,1.11E2,1.46E2,2.7E1,1E1,3.3E1,6.1E1,5E1,6.9E1,7.7E1,1.5E1,1.2E1,3.6E1,2.5E1,2.8E1,2.2E1,3E1,3.9E1,3.4E1,4.3E1,1.6E1,6E0,1.6E1,1.4E1,1.9E1,2E1],"tree_param":{"num_deleted":"0","num_feature":"64","num_nodes":"29","size_leaf_vector":"1"}},{"base_weights":[4.8818486E-4,-6.701227E-2,6.6025294E-2,-1.2772775E-1,-4.1277237E-2,4.8119996E-2,1.7314266E-1,-5.0841696E-3,-3.2135618E-3,-6.165185E-2,-2.0079823E-2,2.5215482E-2,7.34647E-2,4.0368796E-3,7.773142E-3,-2.0455944E-3,-1.3030804E-3,-2.745842E-2,-8.524228E-3,1.0821838E-2,3.552712E-2,1.7834747E-3,2.5839587E-3,-9.284146E-4,-6.0585793E-4,-3.428209E-4,-1.1012843E-4,1.4122752E-4,4.686847E-4,7.641779E-4,1.2100189E-3],"categories":[],"categories_nodes":[],"categories_segments":[],"categories_sizes":[],"default_left":[0,0,0,0,0,0,0,0,0,0,0,0,0,0,0,0,0,0,0,0,0,0,0,0,0,0,0,0,0,0,0],"id":38,"left_children":[1,3,5,7,9,11,13,-1,-1,15,17,19,21,-1,-1,-1,-1,23,25,27,29,-1,-1,-1,-1,-1,-1,-1,-1,-1,-1],"loss_changes":[1.5014335E0,2.5492573E-1,3.2027614E-1,2.0543158E-2,4.99956E-2,8.438891E-2,3.8418353E-2,0E0,0E0,3.6117435E-3,4.852025E-3,1.1442084E-2,6.318599E-3,0E0,0E0,0E0,0E0,1.6729534E-4,3.0472223E-4,9.4502186E-4,9.999797E-4,0E0,0E0,0E0,0E0,0E0,0E0,0E0,0E0,0E0,0E0],"parents":[2147483647,0,0,1,1,2,2,3,3,4,4,5,5,6,6,9,9,10,10,11,11,12,12,17,17,18,18,19,19,20,20],"right_children":[2,4,6,8,10,12,14,-1,-1,16,18,20,22,-1,-1,-1,-1,24,26,28,30,-1,-1,-1,-1,-1,-1,-1,-1,-1,-1],"split_conditions":[-2.8605258E-1,-9.013214E-1,7.704587E1,-1.9289317E2,-8.8457756E1,8.669444E0,2.1584209E2,-5.0841696E-3,-3.2135618E-3,-6.77295E-1,-4.1194147E-1,-2.2981537E1,3.842544E1,4.0368796E-3,7.773142E-3,-2.0455944E-3,-1.3030804E-3,-4.7601584E-1,-5.7309494E1,-1.4857138E0,-7.6366045E-2,1.7834747E-3,2.5839587E-3,-9.284146E-4,-6.0585793E-4,-3.428209E-4,-1.1012843E-4,1.4122752E-4,4.686847E-4,7.641779E-4,1.2100189E-3],"split_indices":[58,58,54,54,54,54,54,0,0,58,58,54,54,0,0,0,0,58,54,60,58,0,0,0,0,0,0,0,0,0,0],"split_type":[0,0,0,0,0,0,0,0,0,0,0,0,0,0,0,0,0,0,0,0,0,0,0,0,0,0,0,0,0,0,0],"sum_hessian":[3.37E2,1.66E2,1.71E2,4.8E1,1.18E2,1.48E2,2.3E1,1.3E1,3.5E1,5.9E1,5.9E1,7.9E1,6.9E1,1.8E1,5E0,4.1E1,1.8E1,3.5E1,2.4E1,3.4E1,4.5E1,3.6E1,3.3E1,2.1E1,1.4E1,1.4E1,1E1,1.6E1,1.8E1,1.7E1,2.8E1],"tree_param":{"num_deleted":"0","num_feature":"64","num_nodes":"31","size_leaf_vector":"1"}},{"base_weights":[3.3696247E-3,-5.7084862E-2,6.8894565E-2,-9.840218E-2,-2.7572155E-2,5.306227E-2,1.8370324E-1,-3.7353379E-3,-2.2755153E-3,-4.377883E-2,-1.1352332E-2,2.980862E-2,7.539576E-2,4.035944E-3,7.585082E-3,-1.4420354E-3,-9.4444054E-4,-1.8511554E-2,-1.7353386E-4,1.775025E-2,1.1882646E-3,1.8624648E-3,2.6766984E-3,-6.3750555E-4,-3.403302E-4,-1.0230832E-4,9.2454065E-5,3.3293435E-4,6.7503913E-4],"categories":[],"categories_nodes":[],"categories_segments":[],"categories_sizes":[],"default_left":[0,0,0,0,0,0,0,0,0,0,0,0,0,0,0,0,0,0,0,0,0,0,0,0,0,0,0,0,0],"id":39,"left_children":[1,3,5,7,9,11,13,-1,-1,15,17,19,21,-1,-1,-1,-1,23,25,27,-1,-1,-1,-1,-1,-1,-1,-1,-1],"loss_changes":[1.2731203E0,2.0062548E-1,2.6858974E-1,2.941209E-2,2.5480248E-2,6.855586E-2,2.1051586E-2,0E0,0E0,7.791221E-4,4.093758E-3,7.3339865E-3,6.0922503E-3,0E0,0E0,0E0,0E0,3.2312144E-4,2.3598954E-4,7.4966345E-4,0E0,0E0,0E0,0E0,0E0,0E0,0E0,0E0,0E0],"parents":[2147483647,0,0,1,1,2,2,3,3,4,4,5,5,6,6,9,9,10,10,11,11,12,12,17,17,18,18,19,19],"right_children":[2,4,6,8,10,12,14,-1,-1,16,18,20,22,-1,-1,-1,-1,24,26,28,-1,-1,-1,-1,-1,-1,-1,-1,-1],"split_conditions":[-4.0934807E1,-4.568206E0,8.6754845E1,-6.1510487E0,-3.1451893E0,1.4127495E1,4.5530224E-1,-3.7353379E-3,-2.2755153E-3,-8.8457756E1,-3.4650037E-1,-9.150912E-2,2.7426967E-1,4.035944E-3,7.585082E-3,-1.4420354E-3,-9.4444054E-4,-2.542852E0,-2.7995276E-1,-3.0774014E1,1.1882646E-3,1.8624648E-3,2.6766984E-3,-6.3750555E-4,-3.403302E-4,-1.0230832E-4,9.2454065E-5,3.3293435E-4,6.7503913E-4],"split_indices":[54,59,54,59,59,54,20,0,0,54,58,58,58,0,0,0,0,59,58,54,0,0,0,0,0,0,0,0,0],"split_type":[0,0,0,0,0,0,0,0,0,0,0,0,0,0,0,0,0,0,0,0,0,0,0,0,0,0,0,0,0],"sum_hessian":[3.19E2,1.66E2,1.53E2,6.8E1,9.8E1,1.36E2,1.7E1,2.9E1,3.9E1,4.8E1,5E1,6.8E1,6.8E1,1.2E1,5E0,3.3E1,1.5E1,3E1,2E1,3.2E1,3.6E1,3.8E1,3E1,2E1,1E1,1E1,1E1,1.5E1,1.7E1],"tree_param":{"num_deleted":"0","num_feature":"64","num_nodes":"29","size_leaf_vector":"1"}},{"base_weights":[-5.167999E-4,-6.080449E-2,6.2018696E-2,-9.839668E-2,-3.113313E-2,4.5528464E-2,1.4884557E-1,-3.7742555E-3,-2.3098777E-3,-4.3465465E-2,-1.2963053E-2,2.0747703E-2,6.685458E-2,3.5490103E-3,6.586652E-3,-1.4883414E-3,-1.0246766E-3,-1.7366532E-2,-4.349446E-3,8.986074E-3,2.9872121E-2,1.5541929E-3,2.2596389E-3,-5.748141E-4,-3.1873945E-4,-1.7865466E-4,-2.5978996E-5,1.5619732E-4,3.8414003E-4,6.044339E-4,9.947233E-4],"categories":[],"categories_nodes":[],"categories_segments":[],"categories_sizes":[],"default_left":[0,0,0,0,0,0,0,0,0,0,0,0,0,0,0,0,0,0,0,0,0,0,0,0,0,0,0,0,0,0,0],"id":40,"left_children":[1,3,5,7,9,11,13,-1,-1,15,17,19,21,-1,-1,-1,-1,23,25,27,29,-1,-1,-1,-1,-1,-1,-1,-1,-1,-1],"loss_changes":[1.2381088E0,1.828208E-1,2.226733E-1,3.1317413E-2,2.0656236E-2,7.084262E-2,2.3259759E-2,0E0,0E0,1.1821091E-3,1.4341371E-3,6.6750143E-3,4.6437085E-3,0E0,0E0,0E0,0E0,7.258821E-5,7.883218E-5,3.5585533E-4,3.5484135E-4,0E0,0E0,0E0,0E0,0E0,0E0,0E0,0E0,0E0,0E0],"parents":[2147483647,0,0,1,1,2,2,3,3,4,4,5,5,6,6,9,9,10,10,11,11,12,12,17,17,18,18,19,19,20,20],"right_children":[2,4,6,8,10,12,14,-1,-1,16,18,20,22,-1,-1,-1,-1,24,26,28,30,-1,-1,-1,-1,-1,-1,-1,-1,-1,-1],"split_conditions":[-1.739095E0,-4.6434E0,2.5898614E0,-6.424782E0,-3.059259E0,1.444921E-2,1.003848E0,-3.7742555E-3,-2.3098777E-3,-3.724879E0,-3.7779295E-1,-1.7462407E-1,1.7437561E-1,3.5490103E-3,6.586652E-3,-1.4883414E-3,-1.0246766E-3,-2.4780352E0,-1.8849425E0,-1.3852379E0,-6.0080045E-1,1.5541929E-3,2.2596389E-3,-5.748141E-4,-3.1873945E-4,-1.7865466E-4,-2.5978996E-5,1.5619732E-4,3.8414003E-4,6.044339E-4,9.947233E-4],"split_indices":[59,59,59,59,59,58,58,0,0,59,58,58,58,0,0,0,0,59,59,59,59,0,0,0,0,0,0,0,0,0,0],"split_type":[0,0,0,0,0,0,0,0,0,0,0,0,0,0,0,0,0,0,0,0,0,0,0,0,0,0,0,0,0,0,0],"sum_hessian":[3.26E2,1.66E2,1.6E2,7.2E1,9.4E1,1.36E2,2.4E1,2.9E1,4.3E1,5.5E1,3.9E1,6.4E1,7.2E1,1.9E1,5E0,3E1,2.5E1,2.5E1,1.4E1,2.9E1,3.5E1,2.9E1,4.3E1,1.8E1,7E0,9E0,5E0,1.6E1,1.3E1,1.1E1,2.4E1],"tree_param":{"num_deleted":"0","num_feature":"64","num_nodes":"31","size_leaf_vector":"1"}},{"base_weights":[1.2745413E-3,-6.447603E-2,6.0122296E-2,-1.17628224E-1,-4.0221512E-2,4.5806408E-2,1.6557392E-1,-4.8273196E-3,-2.969306E-3,-5.8809932E-2,-2.2684002E-2,2.2115916E-2,6.8819955E-2,3.7285965E-3,7.2422177E-3,-1.9472311E-3,-1.3953546E-3,-9.2743454E-4,-1.2028934E-2,1.1434286E-2,3.321049E-2,1.6652239E-3,2.4038395E-3,-4.7547568E-4,-1.8740703E-4,1.312205E-4,5.028174E-4,7.2817865E-4,1.0960075E-3],"categories":[],"categories_nodes":[],"categories_segments":[],"categories_sizes":[],"default_left":[0,0,0,0,0,0,0,0,0,0,0,0,0,0,0,0,0,0,0,0,0,0,0,0,0,0,0,0,0],"id":41,"left_children":[1,3,5,7,9,11,13,-1,-1,15,17,19,21,-1,-1,-1,-1,-1,23,25,27,-1,-1,-1,-1,-1,-1,-1,-1],"loss_changes":[1.3287171E0,2.0342773E-1,2.644444E-1,2.1413565E-2,3.5301745E-2,8.606017E-2,3.0371964E-2,0E0,0E0,4.4174492E-4,4.833076E-3,9.167176E-3,6.8864524E-3,0E0,0E0,0E0,0E0,0E0,5.040956E-4,1.5365654E-3,1.00173056E-4,0E0,0E0,0E0,0E0,0E0,0E0,0E0,0E0],"parents":[2147483647,0,0,1,1,2,2,3,3,4,4,5,5,6,6,9,9,10,10,11,11,12,12,18,18,19,19,20,20],"right_children":[2,4,6,8,10,12,14,-1,-1,16,18,20,22,-1,-1,-1,-1,-1,24,26,28,-1,-1,-1,-1,-1,-1,-1,-1],"split_conditions":[-4.9495834E1,-9.013214E-1,7.9625175E1,-1.275891E0,-5.984642E-1,8.669444E0,2.1584209E2,-4.8273196E-3,-2.969306E-3,-4.4780173E0,-2.8246388E0,-1.7719929E1,3.842544E1,3.7285965E-3,7.2422177E-3,-1.9472311E-3,-1.3953546E-3,-9.2743454E-4,-2.354433E0,-1.3091927E0,-7.6366045E-2,1.6652239E-3,2.4038395E-3,-4.7547568E-4,-1.8740703E-4,1.312205E-4,5.028174E-4,7.2817865E-4,1.0960075E-3],"split_indices":[54,58,54,58,58,54,54,0,0,59,59,54,54,0,0,0,0,0,59,59,58,0,0,0,0,0,0,0,0],"split_type":[0,0,0,0,0,0,0,0,0,0,0,0,0,0,0,0,0,0,0,0,0,0,0,0,0,0,0,0,0],"sum_hessian":[3.41E2,1.61E2,1.8E2,4.9E1,1.12E2,1.6E2,2E1,1.2E1,3.7E1,5.3E1,5.9E1,8E1,8E1,1.5E1,5E0,3.2E1,2.1E1,3.2E1,2.7E1,4.2E1,3.8E1,4E1,4E1,1.5E1,1.2E1,1.9E1,2.3E1,1.3E1,2.5E1],"tree_param":{"num_deleted":"0","num_feature":"64","num_nodes":"29","size_leaf_vector":"1"}},{"base_weights":[1.065698E-3,-5.8323774E-2,5.876263E-2,-1.0835784E-1,-3.6012903E-2,4.4033483E-2,1.6395967E-1,-4.20497E-3,-2.6465317E-3,-5.253349E-2,-1.671505E-2,2.1197984E-2,6.535593E-2,3.7322799E-3,7.0670024E-3,-1.7329887E-3,-1.1311094E-3,-2.2273775E-2,-7.4165515E-3,9.201959E-3,2.9446447E-2,1.5924048E-3,2.279584E-3,-7.586115E-4,-5.059971E-4,-3.0975696E-4,-9.581497E-5,1.239482E-4,3.9325218E-4,6.80292E-4,1.0570412E-3],"categories":[],"categories_nodes":[],"categories_segments":[],"categories_sizes":[],"default_left":[0,0,0,0,0,0,0,0,0,0,0,0,0,0,0,0,0,0,0,0,0,0,0,0,0,0,0,0,0,0,0],"id":42,"left_children":[1,3,5,7,9,11,13,-1,-1,15,17,19,21,-1,-1,-1,-1,23,25,27,29,-1,-1,-1,-1,-1,-1,-1,-1,-1,-1],"loss_changes":[1.1903982E0,1.8642843E-1,2.6435167E-1,1.8601894E-2,3.726746E-2,7.439265E-2,2.4872184E-2,0E0,0E0,2.3684055E-3,2.7583074E-3,7.3136874E-3,5.625576E-3,0E0,0E0,0E0,0E0,6.172061E-5,2.4538266E-4,5.926038E-4,8.1244484E-4,0E0,0E0,0E0,0E0,0E0,0E0,0E0,0E0,0E0,0E0],"parents":[2147483647,0,0,1,1,2,2,3,3,4,4,5,5,6,6,9,9,10,10,11,11,12,12,17,17,18,18,19,19,20,20],"right_children":[2,4,6,8,10,12,14,-1,-1,16,18,20,22,-1,-1,-1,-1,24,26,28,30,-1,-1,-1,-1,-1,-1,-1,-1,-1,-1],"split_conditions":[-2.7995276E-1,-1.3751672E2,2.8780677E0,-1.8396541E2,-8.8457756E1,3.259196E-1,2.1584209E2,-4.20497E-3,-2.6465317E-3,-1.06410164E2,-4.0949652E-1,-1.3530435E-1,3.6843143E1,3.7322799E-3,7.0670024E-3,-1.7329887E-3,-1.1311094E-3,-4.7008348E-1,-5.7309494E1,-3.8130497E1,-7.6366045E-2,1.5924048E-3,2.279584E-3,-7.586115E-4,-5.059971E-4,-3.0975696E-4,-9.581497E-5,1.239482E-4,3.9325218E-4,6.80292E-4,1.0570412E-3],"split_indices":[58,54,60,54,54,60,54,0,0,54,58,58,54,0,0,0,0,58,54,54,58,0,0,0,0,0,0,0,0,0,0],"split_type":[0,0,0,0,0,0,0,0,0,0,0,0,0,0,0,0,0,0,0,0,0,0,0,0,0,0,0,0,0,0,0],"sum_hessian":[3.45E2,1.7E2,1.75E2,5.1E1,1.19E2,1.55E2,2E1,1.7E1,3.4E1,6.3E1,5.6E1,7.6E1,7.9E1,1.5E1,5E0,4.4E1,1.9E1,3.4E1,2.2E1,3.2E1,4.4E1,4E1,3.9E1,1.9E1,1.5E1,1.2E1,1E1,1.5E1,1.7E1,2.3E1,2.1E1],"tree_param":{"num_deleted":"0","num_feature":"64","num_nodes":"31","size_leaf_vector":"1"}},{"base_weights":[1.4350144E-3,-5.617788E-2,5.8686554E-2,-9.4102256E-2,-3.1827748E-2,4.5308094E-2,1.6302092E-1,-3.5943238E-3,-2.3065426E-3,-4.5909993E-2,-1.45495E-2,2.426634E-2,6.735941E-2,3.5040947E-3,6.896027E-3,-1.5756126E-3,-1.0451331E-3,-1.9655796E-2,-5.1171095E-3,1.3238668E-2,1.0709099E-3,1.6686723E-3,2.4325075E-3,-6.4260035E-4,-3.8504595E-4,-2.1392807E-4,-2.5558222E-5,1.916565E-4,5.18512E-4],"categories":[],"categories_nodes":[],"categories_segments":[],"categories_sizes":[],"default_left":[0,0,0,0,0,0,0,0,0,0,0,0,0,0,0,0,0,0,0,0,0,0,0,0,0,0,0,0,0],"id":43,"left_children":[1,3,5,7,9,11,13,-1,-1,15,17,19,21,-1,-1,-1,-1,23,25,27,-1,-1,-1,-1,-1,-1,-1,-1,-1],"loss_changes":[1.0799032E0,1.4711517E-1,2.2033238E-1,1.6920686E-2,2.3822054E-2,6.6339076E-2,2.4009794E-2,0E0,0E0,1.8445775E-3,2.152671E-3,9.164229E-3,6.056845E-3,0E0,0E0,0E0,0E0,3.3506192E-5,1.490353E-4,1.0091164E-3,0E0,0E0,0E0,0E0,0E0,0E0,0E0,0E0,0E0],